<?xml version="1.0"?>
<MethodSetup Method="BDT::BDT">
  <GeneralInfo>
    <Info name="TMVA Release" value="4.2.1 [262657]"/>
    <Info name="ROOT Release" value="6.22/08 [398856]"/>
    <Info name="Creator" value="cgiuglia"/>
    <Info name="Date" value="Mon Jun 21 11:36:41 2021"/>
    <Info name="Host" value="Linux buildhw-x86-03.iad2.fedoraproject.org 5.10.15-200.fc33.x86_64 #1 SMP Wed Feb 10 17:46:55 UTC 2021 x86_64 x86_64 x86_64 GNU/Linux"/>
    <Info name="Dir" value="/eos/lhcb/user/c/cgiuglia/DsDsst"/>
    <Info name="Training events" value="28434"/>
    <Info name="TrainingTime" value="1.66402197e+00"/>
    <Info name="AnalysisType" value="Classification"/>
  </GeneralInfo>
  <Options>
    <Option name="V" modified="Yes">False</Option>
    <Option name="VerbosityLevel" modified="No">Default</Option>
    <Option name="VarTransform" modified="No">None</Option>
    <Option name="H" modified="Yes">False</Option>
    <Option name="CreateMVAPdfs" modified="No">False</Option>
    <Option name="IgnoreNegWeightsInTraining" modified="No">False</Option>
    <Option name="NTrees" modified="Yes">200</Option>
    <Option name="MaxDepth" modified="Yes">2</Option>
    <Option name="MinNodeSize" modified="Yes">2.5%</Option>
    <Option name="nCuts" modified="Yes">20</Option>
    <Option name="BoostType" modified="Yes">AdaBoost</Option>
    <Option name="AdaBoostR2Loss" modified="No">quadratic</Option>
    <Option name="UseBaggedBoost" modified="Yes">True</Option>
    <Option name="Shrinkage" modified="No">1.000000e+00</Option>
    <Option name="AdaBoostBeta" modified="Yes">5.000000e-01</Option>
    <Option name="UseRandomisedTrees" modified="No">False</Option>
    <Option name="UseNvars" modified="No">3</Option>
    <Option name="UsePoissonNvars" modified="No">True</Option>
    <Option name="BaggedSampleFraction" modified="Yes">5.000000e-01</Option>
    <Option name="UseYesNoLeaf" modified="No">True</Option>
    <Option name="NegWeightTreatment" modified="No">inverseboostnegweights</Option>
    <Option name="Css" modified="No">1.000000e+00</Option>
    <Option name="Cts_sb" modified="No">1.000000e+00</Option>
    <Option name="Ctb_ss" modified="No">1.000000e+00</Option>
    <Option name="Cbb" modified="No">1.000000e+00</Option>
    <Option name="NodePurityLimit" modified="No">5.000000e-01</Option>
    <Option name="SeparationType" modified="Yes">giniindex</Option>
    <Option name="RegressionLossFunctionBDTG" modified="No">huber</Option>
    <Option name="HuberQuantile" modified="No">7.000000e-01</Option>
    <Option name="DoBoostMonitor" modified="No">False</Option>
    <Option name="UseFisherCuts" modified="No">False</Option>
    <Option name="MinLinCorrForFisher" modified="No">8.000000e-01</Option>
    <Option name="UseExclusiveVars" modified="No">False</Option>
    <Option name="DoPreselection" modified="No">False</Option>
    <Option name="SigToBkgFraction" modified="No">1.000000e+00</Option>
    <Option name="PruneMethod" modified="No">nopruning</Option>
    <Option name="PruneStrength" modified="No">0.000000e+00</Option>
    <Option name="PruningValFraction" modified="No">5.000000e-01</Option>
    <Option name="SkipNormalization" modified="No">False</Option>
    <Option name="nEventsMin" modified="No">0</Option>
    <Option name="UseBaggedGrad" modified="No">False</Option>
    <Option name="GradBaggingFraction" modified="No">5.000000e-01</Option>
    <Option name="UseNTrainEvents" modified="No">0</Option>
    <Option name="NNodesMax" modified="No">0</Option>
  </Options>
  <Variables NVar="7">
    <Variable VarIndex="0" Expression="Xc_0.30_nc_maxPt_PT" Label="Xc_0.30_nc_maxPt_PT" Title="Xc_0.30_nc_maxPt_PT" Unit="MeV/c" Internal="Xc_0.30_nc_maxPt_PT" Type="F" Min="2.00009399e+02" Max="1.95408613e+04"/>
    <Variable VarIndex="1" Expression="Xc_0.30_nc_asy_P" Label="Xc_0.30_nc_asy_P" Title="Xc_0.30_nc_asy_P" Unit="" Internal="Xc_0.30_nc_asy_P" Type="F" Min="-3.98563564e-01" Max="9.85398233e-01"/>
    <Variable VarIndex="2" Expression="Xc_0.30_nc_deltaEta" Label="Xc_0.30_nc_deltaEta" Title="Xc_0.30_nc_deltaEta" Unit="" Internal="Xc_0.30_nc_deltaEta" Type="F" Min="-2.99545348e-01" Max="2.98967987e-01"/>
    <Variable VarIndex="3" Expression="Xc_0.30_nc_deltaPhi" Label="Xc_0.30_nc_deltaPhi" Title="Xc_0.30_nc_deltaPhi" Unit="" Internal="Xc_0.30_nc_deltaPhi" Type="F" Min="7.00299097e-06" Max="2.99793988e-01"/>
    <Variable VarIndex="4" Expression="Xc_0.30_nc_avCL" Label="Xc_0.30_nc_avCL" Title="Xc_0.30_nc_avCL" Unit="" Internal="Xc_0.30_nc_avCL" Type="F" Min="3.92062415e-04" Max="9.98657286e-01"/>
    <Variable VarIndex="5" Expression="Xc_pT_Breco_Yreco" Label="Xc_pT_Breco_Yreco" Title="Xc_pT_Breco_Yreco" Unit="MeV/c" Internal="Xc_pT_Breco_Yreco" Type="F" Min="4.69333878e+01" Max="1.03927607e+04"/>
    <Variable VarIndex="6" Expression="Delta_ms_030_maxPt" Label="Delta_ms_030_maxPt" Title="Delta_ms_030_maxPt" Unit="MeV/c^2" Internal="Delta_ms_030_maxPt" Type="F" Min="1.45360346e+01" Max="3.49110767e+03"/>
  </Variables>
  <Spectators NSpec="3">
    <Spectator SpecIndex="0" Expression="B_MM" Label="B_MM" Title="B_MM 1" Unit="MeV/c^2" Internal="B_MM" Type="F" Min="2.79345703e+03" Max="5.05120020e+03"/>
    <Spectator SpecIndex="1" Expression="Xc_MM" Label="Xc_MM" Title="Xc_MM 2" Unit="MeV/c^2" Internal="Xc_MM" Type="F" Min="1.94802905e+03" Max="1.98797595e+03"/>
    <Spectator SpecIndex="2" Expression="Xc_0.30_nc_mult" Label="Xc_0.30_nc_mult" Title="Xc_0.30_nc_mult" Unit="" Internal="Xc_0.30_nc_mult" Type="F" Min="1.00000000e+00" Max="1.30000000e+01"/>
  </Spectators>
  <Classes NClass="2">
    <Class Name="Signal" Index="0"/>
    <Class Name="Background" Index="1"/>
  </Classes>
  <Transformations NTransformations="0"/>
  <MVAPdfs/>
  <Weights NTrees="200" AnalysisType="0">
    <BinaryTree type="DecisionTree" boostWeight="2.7132206300374073e-01" itree="0">
      <Node pos="s" depth="0" NCoef="0" IVar="5" Cut="1.2617645263671875e+03" cType="0" res="-9.9000000000000000e+01" rms="0.0000000000000000e+00" purity="5.0071561336517334e-01" nType="0">
        <Node pos="l" depth="1" NCoef="0" IVar="-1" Cut="8.6818081140518188e-01" cType="0" res="-9.9000000000000000e+01" rms="0.0000000000000000e+00" purity="6.8399953842163086e-01" nType="1"/>
        <Node pos="r" depth="1" NCoef="0" IVar="1" Cut="8.5837399959564209e-01" cType="0" res="-9.9000000000000000e+01" rms="0.0000000000000000e+00" purity="4.2051428556442261e-01" nType="0">
          <Node pos="l" depth="2" NCoef="0" IVar="-1" Cut="0.0000000000000000e+00" cType="1" res="-9.9000000000000000e+01" rms="0.0000000000000000e+00" purity="5.3585022687911987e-01" nType="1"/>
          <Node pos="r" depth="2" NCoef="0" IVar="-1" Cut="0.0000000000000000e+00" cType="1" res="-9.9000000000000000e+01" rms="0.0000000000000000e+00" purity="3.3574202656745911e-01" nType="-1"/>
        </Node>
      </Node>
    </BinaryTree>
    <BinaryTree type="DecisionTree" boostWeight="2.2730480662220504e-01" itree="1">
      <Node pos="s" depth="0" NCoef="0" IVar="5" Cut="1.2651412353515625e+03" cType="0" res="-9.9000000000000000e+01" rms="0.0000000000000000e+00" purity="4.9576774239540100e-01" nType="0">
        <Node pos="l" depth="1" NCoef="0" IVar="-1" Cut="1.3008514404296875e+02" cType="1" res="-9.9000000000000000e+01" rms="0.0000000000000000e+00" purity="6.4948290586471558e-01" nType="1"/>
        <Node pos="r" depth="1" NCoef="0" IVar="6" Cut="8.3747901916503906e+01" cType="1" res="-9.9000000000000000e+01" rms="0.0000000000000000e+00" purity="4.3235903978347778e-01" nType="0">
          <Node pos="l" depth="2" NCoef="0" IVar="-1" Cut="0.0000000000000000e+00" cType="1" res="-9.9000000000000000e+01" rms="0.0000000000000000e+00" purity="5.3977763652801514e-01" nType="1"/>
          <Node pos="r" depth="2" NCoef="0" IVar="-1" Cut="0.0000000000000000e+00" cType="1" res="-9.9000000000000000e+01" rms="0.0000000000000000e+00" purity="3.7232297658920288e-01" nType="-1"/>
        </Node>
      </Node>
    </BinaryTree>
    <BinaryTree type="DecisionTree" boostWeight="1.7502446568536112e-01" itree="2">
      <Node pos="s" depth="0" NCoef="0" IVar="5" Cut="1.0322502441406250e+03" cType="0" res="-9.9000000000000000e+01" rms="0.0000000000000000e+00" purity="4.8773097991943359e-01" nType="0">
        <Node pos="l" depth="1" NCoef="0" IVar="-1" Cut="8.5359221696853638e-01" cType="0" res="-9.9000000000000000e+01" rms="0.0000000000000000e+00" purity="5.7472831010818481e-01" nType="1"/>
        <Node pos="r" depth="1" NCoef="0" IVar="-1" Cut="7.6780999755859375e+02" cType="1" res="-9.9000000000000000e+01" rms="0.0000000000000000e+00" purity="4.0158602595329285e-01" nType="-1"/>
      </Node>
    </BinaryTree>
    <BinaryTree type="DecisionTree" boostWeight="2.0898969577928445e-01" itree="3">
      <Node pos="s" depth="0" NCoef="0" IVar="6" Cut="1.0746831512451172e+02" cType="1" res="-9.9000000000000000e+01" rms="0.0000000000000000e+00" purity="4.8504444956779480e-01" nType="0">
        <Node pos="l" depth="1" NCoef="0" IVar="5" Cut="9.6688781738281250e+02" cType="0" res="-9.9000000000000000e+01" rms="0.0000000000000000e+00" purity="5.6824010610580444e-01" nType="0">
          <Node pos="l" depth="2" NCoef="0" IVar="-1" Cut="0.0000000000000000e+00" cType="1" res="-9.9000000000000000e+01" rms="0.0000000000000000e+00" purity="6.3453024625778198e-01" nType="1"/>
          <Node pos="r" depth="2" NCoef="0" IVar="-1" Cut="0.0000000000000000e+00" cType="1" res="-9.9000000000000000e+01" rms="0.0000000000000000e+00" purity="4.7663739323616028e-01" nType="-1"/>
        </Node>
        <Node pos="r" depth="1" NCoef="0" IVar="6" Cut="1.9449459838867188e+02" cType="0" res="-9.9000000000000000e+01" rms="0.0000000000000000e+00" purity="4.0830826759338379e-01" nType="0">
          <Node pos="l" depth="2" NCoef="0" IVar="-1" Cut="0.0000000000000000e+00" cType="1" res="-9.9000000000000000e+01" rms="0.0000000000000000e+00" purity="5.3945606946945190e-01" nType="1"/>
          <Node pos="r" depth="2" NCoef="0" IVar="-1" Cut="0.0000000000000000e+00" cType="1" res="-9.9000000000000000e+01" rms="0.0000000000000000e+00" purity="3.4651029109954834e-01" nType="-1"/>
        </Node>
      </Node>
    </BinaryTree>
    <BinaryTree type="DecisionTree" boostWeight="1.3984070019396652e-01" itree="4">
      <Node pos="s" depth="0" NCoef="0" IVar="5" Cut="1.3493291015625000e+03" cType="0" res="-9.9000000000000000e+01" rms="0.0000000000000000e+00" purity="4.8991778492927551e-01" nType="0">
        <Node pos="l" depth="1" NCoef="0" IVar="-1" Cut="9.5601327717304230e-02" cType="1" res="-9.9000000000000000e+01" rms="0.0000000000000000e+00" purity="6.3529586791992188e-01" nType="1"/>
        <Node pos="r" depth="1" NCoef="0" IVar="-1" Cut="8.2149920654296875e+02" cType="1" res="-9.9000000000000000e+01" rms="0.0000000000000000e+00" purity="4.4904100894927979e-01" nType="-1"/>
      </Node>
    </BinaryTree>
    <BinaryTree type="DecisionTree" boostWeight="1.5942913385290791e-01" itree="5">
      <Node pos="s" depth="0" NCoef="0" IVar="1" Cut="8.5359233617782593e-01" cType="0" res="-9.9000000000000000e+01" rms="0.0000000000000000e+00" purity="5.0743973255157471e-01" nType="0">
        <Node pos="l" depth="1" NCoef="0" IVar="-1" Cut="1.0403688964843750e+03" cType="0" res="-9.9000000000000000e+01" rms="0.0000000000000000e+00" purity="5.8175665140151978e-01" nType="1"/>
        <Node pos="r" depth="1" NCoef="0" IVar="4" Cut="4.7578352689743042e-01" cType="1" res="-9.9000000000000000e+01" rms="0.0000000000000000e+00" purity="4.4303494691848755e-01" nType="0">
          <Node pos="l" depth="2" NCoef="0" IVar="-1" Cut="0.0000000000000000e+00" cType="1" res="-9.9000000000000000e+01" rms="0.0000000000000000e+00" purity="5.1830971240997314e-01" nType="1"/>
          <Node pos="r" depth="2" NCoef="0" IVar="-1" Cut="0.0000000000000000e+00" cType="1" res="-9.9000000000000000e+01" rms="0.0000000000000000e+00" purity="3.5508272051811218e-01" nType="-1"/>
        </Node>
      </Node>
    </BinaryTree>
    <BinaryTree type="DecisionTree" boostWeight="1.3746372649483321e-01" itree="6">
      <Node pos="s" depth="0" NCoef="0" IVar="5" Cut="1.5366552734375000e+03" cType="0" res="-9.9000000000000000e+01" rms="0.0000000000000000e+00" purity="4.8838123679161072e-01" nType="0">
        <Node pos="l" depth="1" NCoef="0" IVar="-1" Cut="2.8527623414993286e-01" cType="1" res="-9.9000000000000000e+01" rms="0.0000000000000000e+00" purity="6.7279142141342163e-01" nType="1"/>
        <Node pos="r" depth="1" NCoef="0" IVar="1" Cut="8.4948968887329102e-01" cType="0" res="-9.9000000000000000e+01" rms="0.0000000000000000e+00" purity="4.6690213680267334e-01" nType="0">
          <Node pos="l" depth="2" NCoef="0" IVar="-1" Cut="0.0000000000000000e+00" cType="1" res="-9.9000000000000000e+01" rms="0.0000000000000000e+00" purity="5.2447545528411865e-01" nType="1"/>
          <Node pos="r" depth="2" NCoef="0" IVar="-1" Cut="0.0000000000000000e+00" cType="1" res="-9.9000000000000000e+01" rms="0.0000000000000000e+00" purity="4.1573300957679749e-01" nType="-1"/>
        </Node>
      </Node>
    </BinaryTree>
    <BinaryTree type="DecisionTree" boostWeight="1.3219599285188352e-01" itree="7">
      <Node pos="s" depth="0" NCoef="0" IVar="5" Cut="1.2679376220703125e+03" cType="0" res="-9.9000000000000000e+01" rms="0.0000000000000000e+00" purity="4.8901447653770447e-01" nType="0">
        <Node pos="l" depth="1" NCoef="0" IVar="-1" Cut="4.8084065318107605e-02" cType="1" res="-9.9000000000000000e+01" rms="0.0000000000000000e+00" purity="5.7227128744125366e-01" nType="1"/>
        <Node pos="r" depth="1" NCoef="0" IVar="6" Cut="1.0933295440673828e+02" cType="1" res="-9.9000000000000000e+01" rms="0.0000000000000000e+00" purity="4.5539659261703491e-01" nType="0">
          <Node pos="l" depth="2" NCoef="0" IVar="-1" Cut="0.0000000000000000e+00" cType="1" res="-9.9000000000000000e+01" rms="0.0000000000000000e+00" purity="5.1848727464675903e-01" nType="1"/>
          <Node pos="r" depth="2" NCoef="0" IVar="-1" Cut="0.0000000000000000e+00" cType="1" res="-9.9000000000000000e+01" rms="0.0000000000000000e+00" purity="3.9245641231536865e-01" nType="-1"/>
        </Node>
      </Node>
    </BinaryTree>
    <BinaryTree type="DecisionTree" boostWeight="1.3573742283808529e-01" itree="8">
      <Node pos="s" depth="0" NCoef="0" IVar="4" Cut="9.5455609261989594e-02" cType="1" res="-9.9000000000000000e+01" rms="0.0000000000000000e+00" purity="4.9273639917373657e-01" nType="0">
        <Node pos="l" depth="1" NCoef="0" IVar="-1" Cut="1.3400648193359375e+03" cType="0" res="-9.9000000000000000e+01" rms="0.0000000000000000e+00" purity="5.9279376268386841e-01" nType="1"/>
        <Node pos="r" depth="1" NCoef="0" IVar="6" Cut="1.0997664642333984e+02" cType="1" res="-9.9000000000000000e+01" rms="0.0000000000000000e+00" purity="4.6008375287055969e-01" nType="0">
          <Node pos="l" depth="2" NCoef="0" IVar="-1" Cut="0.0000000000000000e+00" cType="1" res="-9.9000000000000000e+01" rms="0.0000000000000000e+00" purity="5.2119612693786621e-01" nType="1"/>
          <Node pos="r" depth="2" NCoef="0" IVar="-1" Cut="0.0000000000000000e+00" cType="1" res="-9.9000000000000000e+01" rms="0.0000000000000000e+00" purity="4.0915459394454956e-01" nType="-1"/>
        </Node>
      </Node>
    </BinaryTree>
    <BinaryTree type="DecisionTree" boostWeight="9.2731985918241486e-02" itree="9">
      <Node pos="s" depth="0" NCoef="0" IVar="5" Cut="1.5606131591796875e+03" cType="0" res="-9.9000000000000000e+01" rms="0.0000000000000000e+00" purity="4.7673949599266052e-01" nType="0">
        <Node pos="l" depth="1" NCoef="0" IVar="-1" Cut="1.3004499816894531e+02" cType="1" res="-9.9000000000000000e+01" rms="0.0000000000000000e+00" purity="6.2638050317764282e-01" nType="1"/>
        <Node pos="r" depth="1" NCoef="0" IVar="-1" Cut="8.2149920654296875e+02" cType="1" res="-9.9000000000000000e+01" rms="0.0000000000000000e+00" purity="4.6177914738655090e-01" nType="-1"/>
      </Node>
    </BinaryTree>
    <BinaryTree type="DecisionTree" boostWeight="1.2050175132753353e-01" itree="10">
      <Node pos="s" depth="0" NCoef="0" IVar="5" Cut="5.9921264648437500e+02" cType="0" res="-9.9000000000000000e+01" rms="0.0000000000000000e+00" purity="4.9439737200737000e-01" nType="0">
        <Node pos="l" depth="1" NCoef="0" IVar="0" Cut="7.1580383300781250e+02" cType="1" res="-9.9000000000000000e+01" rms="0.0000000000000000e+00" purity="5.1423174142837524e-01" nType="0">
          <Node pos="l" depth="2" NCoef="0" IVar="-1" Cut="0.0000000000000000e+00" cType="1" res="-9.9000000000000000e+01" rms="0.0000000000000000e+00" purity="5.4643315076828003e-01" nType="1"/>
          <Node pos="r" depth="2" NCoef="0" IVar="-1" Cut="0.0000000000000000e+00" cType="1" res="-9.9000000000000000e+01" rms="0.0000000000000000e+00" purity="4.4479340314865112e-01" nType="-1"/>
        </Node>
        <Node pos="r" depth="1" NCoef="0" IVar="6" Cut="2.0310264587402344e+02" cType="0" res="-9.9000000000000000e+01" rms="0.0000000000000000e+00" purity="3.8850980997085571e-01" nType="0">
          <Node pos="l" depth="2" NCoef="0" IVar="-1" Cut="0.0000000000000000e+00" cType="1" res="-9.9000000000000000e+01" rms="0.0000000000000000e+00" purity="5.1801383495330811e-01" nType="1"/>
          <Node pos="r" depth="2" NCoef="0" IVar="-1" Cut="0.0000000000000000e+00" cType="1" res="-9.9000000000000000e+01" rms="0.0000000000000000e+00" purity="3.6340090632438660e-01" nType="-1"/>
        </Node>
      </Node>
    </BinaryTree>
    <BinaryTree type="DecisionTree" boostWeight="1.1429844195130230e-01" itree="11">
      <Node pos="s" depth="0" NCoef="0" IVar="5" Cut="1.2643621826171875e+03" cType="0" res="-9.9000000000000000e+01" rms="0.0000000000000000e+00" purity="4.8292306065559387e-01" nType="0">
        <Node pos="l" depth="1" NCoef="0" IVar="-1" Cut="1.6110513916015625e+03" cType="0" res="-9.9000000000000000e+01" rms="0.0000000000000000e+00" purity="5.5033326148986816e-01" nType="1"/>
        <Node pos="r" depth="1" NCoef="0" IVar="6" Cut="2.1425045776367188e+02" cType="0" res="-9.9000000000000000e+01" rms="0.0000000000000000e+00" purity="4.5495718717575073e-01" nType="0">
          <Node pos="l" depth="2" NCoef="0" IVar="-1" Cut="0.0000000000000000e+00" cType="1" res="-9.9000000000000000e+01" rms="0.0000000000000000e+00" purity="5.5782973766326904e-01" nType="1"/>
          <Node pos="r" depth="2" NCoef="0" IVar="-1" Cut="0.0000000000000000e+00" cType="1" res="-9.9000000000000000e+01" rms="0.0000000000000000e+00" purity="4.4011411070823669e-01" nType="-1"/>
        </Node>
      </Node>
    </BinaryTree>
    <BinaryTree type="DecisionTree" boostWeight="7.4207534329763528e-02" itree="12">
      <Node pos="s" depth="0" NCoef="0" IVar="4" Cut="7.6091563701629639e-01" cType="1" res="-9.9000000000000000e+01" rms="0.0000000000000000e+00" purity="4.9297729134559631e-01" nType="0">
        <Node pos="l" depth="1" NCoef="0" IVar="-1" Cut="1.6036879882812500e+03" cType="0" res="-9.9000000000000000e+01" rms="0.0000000000000000e+00" purity="5.1909458637237549e-01" nType="1"/>
        <Node pos="r" depth="1" NCoef="0" IVar="-1" Cut="4.9974349975585938e+02" cType="1" res="-9.9000000000000000e+01" rms="0.0000000000000000e+00" purity="3.9710509777069092e-01" nType="-1"/>
      </Node>
    </BinaryTree>
    <BinaryTree type="DecisionTree" boostWeight="1.1094084537548361e-01" itree="13">
      <Node pos="s" depth="0" NCoef="0" IVar="4" Cut="2.8551530838012695e-01" cType="1" res="-9.9000000000000000e+01" rms="0.0000000000000000e+00" purity="4.9138268828392029e-01" nType="0">
        <Node pos="l" depth="1" NCoef="0" IVar="5" Cut="5.4416503906250000e+02" cType="0" res="-9.9000000000000000e+01" rms="0.0000000000000000e+00" purity="5.5240523815155029e-01" nType="0">
          <Node pos="l" depth="2" NCoef="0" IVar="-1" Cut="0.0000000000000000e+00" cType="1" res="-9.9000000000000000e+01" rms="0.0000000000000000e+00" purity="5.7101893424987793e-01" nType="1"/>
          <Node pos="r" depth="2" NCoef="0" IVar="-1" Cut="0.0000000000000000e+00" cType="1" res="-9.9000000000000000e+01" rms="0.0000000000000000e+00" purity="4.2659744620323181e-01" nType="-1"/>
        </Node>
        <Node pos="r" depth="1" NCoef="0" IVar="-1" Cut="8.2429644775390625e+02" cType="1" res="-9.9000000000000000e+01" rms="0.0000000000000000e+00" purity="4.5448124408721924e-01" nType="-1"/>
      </Node>
    </BinaryTree>
    <BinaryTree type="DecisionTree" boostWeight="6.3074465968326374e-02" itree="14">
      <Node pos="s" depth="0" NCoef="0" IVar="0" Cut="9.1639495849609375e+02" cType="1" res="-9.9000000000000000e+01" rms="0.0000000000000000e+00" purity="4.9087756872177124e-01" nType="0">
        <Node pos="l" depth="1" NCoef="0" IVar="5" Cut="1.5695289306640625e+03" cType="0" res="-9.9000000000000000e+01" rms="0.0000000000000000e+00" purity="5.1151472330093384e-01" nType="0">
          <Node pos="l" depth="2" NCoef="0" IVar="-1" Cut="0.0000000000000000e+00" cType="1" res="-9.9000000000000000e+01" rms="0.0000000000000000e+00" purity="6.4672476053237915e-01" nType="1"/>
          <Node pos="r" depth="2" NCoef="0" IVar="-1" Cut="0.0000000000000000e+00" cType="1" res="-9.9000000000000000e+01" rms="0.0000000000000000e+00" purity="4.9816930294036865e-01" nType="-1"/>
        </Node>
        <Node pos="r" depth="1" NCoef="0" IVar="6" Cut="1.6836688232421875e+02" cType="0" res="-9.9000000000000000e+01" rms="0.0000000000000000e+00" purity="4.1258686780929565e-01" nType="0">
          <Node pos="l" depth="2" NCoef="0" IVar="-1" Cut="0.0000000000000000e+00" cType="1" res="-9.9000000000000000e+01" rms="0.0000000000000000e+00" purity="5.0506263971328735e-01" nType="1"/>
          <Node pos="r" depth="2" NCoef="0" IVar="-1" Cut="0.0000000000000000e+00" cType="1" res="-9.9000000000000000e+01" rms="0.0000000000000000e+00" purity="1.8048946559429169e-01" nType="-1"/>
        </Node>
      </Node>
    </BinaryTree>
    <BinaryTree type="DecisionTree" boostWeight="9.4104764165731644e-02" itree="15">
      <Node pos="s" depth="0" NCoef="0" IVar="5" Cut="1.5546260986328125e+03" cType="0" res="-9.9000000000000000e+01" rms="0.0000000000000000e+00" purity="4.9341785907745361e-01" nType="0">
        <Node pos="l" depth="1" NCoef="0" IVar="-1" Cut="8.6285519599914551e-01" cType="0" res="-9.9000000000000000e+01" rms="0.0000000000000000e+00" purity="6.1714470386505127e-01" nType="1"/>
        <Node pos="r" depth="1" NCoef="0" IVar="4" Cut="4.7914832830429077e-02" cType="1" res="-9.9000000000000000e+01" rms="0.0000000000000000e+00" purity="4.8109593987464905e-01" nType="0">
          <Node pos="l" depth="2" NCoef="0" IVar="-1" Cut="0.0000000000000000e+00" cType="1" res="-9.9000000000000000e+01" rms="0.0000000000000000e+00" purity="5.5661064386367798e-01" nType="1"/>
          <Node pos="r" depth="2" NCoef="0" IVar="-1" Cut="0.0000000000000000e+00" cType="1" res="-9.9000000000000000e+01" rms="0.0000000000000000e+00" purity="4.6388447284698486e-01" nType="-1"/>
        </Node>
      </Node>
    </BinaryTree>
    <BinaryTree type="DecisionTree" boostWeight="9.9589390353416879e-02" itree="16">
      <Node pos="s" depth="0" NCoef="0" IVar="0" Cut="8.2425390625000000e+02" cType="1" res="-9.9000000000000000e+01" rms="0.0000000000000000e+00" purity="5.0152868032455444e-01" nType="0">
        <Node pos="l" depth="1" NCoef="0" IVar="-1" Cut="1.4167702636718750e+03" cType="0" res="-9.9000000000000000e+01" rms="0.0000000000000000e+00" purity="5.2712231874465942e-01" nType="1"/>
        <Node pos="r" depth="1" NCoef="0" IVar="6" Cut="1.8863877868652344e+02" cType="0" res="-9.9000000000000000e+01" rms="0.0000000000000000e+00" purity="4.2751714587211609e-01" nType="0">
          <Node pos="l" depth="2" NCoef="0" IVar="-1" Cut="0.0000000000000000e+00" cType="1" res="-9.9000000000000000e+01" rms="0.0000000000000000e+00" purity="5.3706091642379761e-01" nType="1"/>
          <Node pos="r" depth="2" NCoef="0" IVar="-1" Cut="0.0000000000000000e+00" cType="1" res="-9.9000000000000000e+01" rms="0.0000000000000000e+00" purity="2.8240254521369934e-01" nType="-1"/>
        </Node>
      </Node>
    </BinaryTree>
    <BinaryTree type="DecisionTree" boostWeight="1.0630998457226534e-01" itree="17">
      <Node pos="s" depth="0" NCoef="0" IVar="0" Cut="8.2427648925781250e+02" cType="1" res="-9.9000000000000000e+01" rms="0.0000000000000000e+00" purity="4.9034428596496582e-01" nType="0">
        <Node pos="l" depth="1" NCoef="0" IVar="6" Cut="1.2291794586181641e+02" cType="1" res="-9.9000000000000000e+01" rms="0.0000000000000000e+00" purity="5.1065897941589355e-01" nType="0">
          <Node pos="l" depth="2" NCoef="0" IVar="-1" Cut="0.0000000000000000e+00" cType="1" res="-9.9000000000000000e+01" rms="0.0000000000000000e+00" purity="5.3262162208557129e-01" nType="1"/>
          <Node pos="r" depth="2" NCoef="0" IVar="-1" Cut="0.0000000000000000e+00" cType="1" res="-9.9000000000000000e+01" rms="0.0000000000000000e+00" purity="4.5144280791282654e-01" nType="-1"/>
        </Node>
        <Node pos="r" depth="1" NCoef="0" IVar="6" Cut="2.0364331054687500e+02" cType="0" res="-9.9000000000000000e+01" rms="0.0000000000000000e+00" purity="4.3032750487327576e-01" nType="0">
          <Node pos="l" depth="2" NCoef="0" IVar="-1" Cut="0.0000000000000000e+00" cType="1" res="-9.9000000000000000e+01" rms="0.0000000000000000e+00" purity="5.2858453989028931e-01" nType="1"/>
          <Node pos="r" depth="2" NCoef="0" IVar="-1" Cut="0.0000000000000000e+00" cType="1" res="-9.9000000000000000e+01" rms="0.0000000000000000e+00" purity="3.1700551509857178e-01" nType="-1"/>
        </Node>
      </Node>
    </BinaryTree>
    <BinaryTree type="DecisionTree" boostWeight="7.9922858576837716e-02" itree="18">
      <Node pos="s" depth="0" NCoef="0" IVar="4" Cut="6.6592127084732056e-01" cType="1" res="-9.9000000000000000e+01" rms="0.0000000000000000e+00" purity="4.8920375108718872e-01" nType="0">
        <Node pos="l" depth="1" NCoef="0" IVar="3" Cut="1.4257130026817322e-01" cType="0" res="-9.9000000000000000e+01" rms="0.0000000000000000e+00" purity="5.0964272022247314e-01" nType="0">
          <Node pos="l" depth="2" NCoef="0" IVar="-1" Cut="0.0000000000000000e+00" cType="1" res="-9.9000000000000000e+01" rms="0.0000000000000000e+00" purity="5.6861692667007446e-01" nType="1"/>
          <Node pos="r" depth="2" NCoef="0" IVar="-1" Cut="0.0000000000000000e+00" cType="1" res="-9.9000000000000000e+01" rms="0.0000000000000000e+00" purity="4.8678499460220337e-01" nType="-1"/>
        </Node>
        <Node pos="r" depth="1" NCoef="0" IVar="6" Cut="1.2957925415039062e+02" cType="1" res="-9.9000000000000000e+01" rms="0.0000000000000000e+00" purity="4.3601319193840027e-01" nType="0">
          <Node pos="l" depth="2" NCoef="0" IVar="-1" Cut="0.0000000000000000e+00" cType="1" res="-9.9000000000000000e+01" rms="0.0000000000000000e+00" purity="5.0465959310531616e-01" nType="1"/>
          <Node pos="r" depth="2" NCoef="0" IVar="-1" Cut="0.0000000000000000e+00" cType="1" res="-9.9000000000000000e+01" rms="0.0000000000000000e+00" purity="3.5649845004081726e-01" nType="-1"/>
        </Node>
      </Node>
    </BinaryTree>
    <BinaryTree type="DecisionTree" boostWeight="8.6279571395370944e-02" itree="19">
      <Node pos="s" depth="0" NCoef="0" IVar="5" Cut="1.5776783447265625e+03" cType="0" res="-9.9000000000000000e+01" rms="0.0000000000000000e+00" purity="4.8855629563331604e-01" nType="0">
        <Node pos="l" depth="1" NCoef="0" IVar="-1" Cut="8.7834167480468750e-01" cType="0" res="-9.9000000000000000e+01" rms="0.0000000000000000e+00" purity="6.1925101280212402e-01" nType="1"/>
        <Node pos="r" depth="1" NCoef="0" IVar="6" Cut="2.0122029113769531e+02" cType="0" res="-9.9000000000000000e+01" rms="0.0000000000000000e+00" purity="4.7712215781211853e-01" nType="0">
          <Node pos="l" depth="2" NCoef="0" IVar="-1" Cut="0.0000000000000000e+00" cType="1" res="-9.9000000000000000e+01" rms="0.0000000000000000e+00" purity="5.4368537664413452e-01" nType="1"/>
          <Node pos="r" depth="2" NCoef="0" IVar="-1" Cut="0.0000000000000000e+00" cType="1" res="-9.9000000000000000e+01" rms="0.0000000000000000e+00" purity="4.6497133374214172e-01" nType="-1"/>
        </Node>
      </Node>
    </BinaryTree>
    <BinaryTree type="DecisionTree" boostWeight="8.9543679724232120e-02" itree="20">
      <Node pos="s" depth="0" NCoef="0" IVar="4" Cut="7.1343863010406494e-01" cType="1" res="-9.9000000000000000e+01" rms="0.0000000000000000e+00" purity="5.0343441963195801e-01" nType="0">
        <Node pos="l" depth="1" NCoef="0" IVar="0" Cut="1.1210822753906250e+03" cType="1" res="-9.9000000000000000e+01" rms="0.0000000000000000e+00" purity="5.1913154125213623e-01" nType="0">
          <Node pos="l" depth="2" NCoef="0" IVar="-1" Cut="0.0000000000000000e+00" cType="1" res="-9.9000000000000000e+01" rms="0.0000000000000000e+00" purity="5.3357023000717163e-01" nType="1"/>
          <Node pos="r" depth="2" NCoef="0" IVar="-1" Cut="0.0000000000000000e+00" cType="1" res="-9.9000000000000000e+01" rms="0.0000000000000000e+00" purity="4.2978385090827942e-01" nType="-1"/>
        </Node>
        <Node pos="r" depth="1" NCoef="0" IVar="0" Cut="5.8469854736328125e+02" cType="1" res="-9.9000000000000000e+01" rms="0.0000000000000000e+00" purity="4.5642620325088501e-01" nType="0">
          <Node pos="l" depth="2" NCoef="0" IVar="-1" Cut="0.0000000000000000e+00" cType="1" res="-9.9000000000000000e+01" rms="0.0000000000000000e+00" purity="5.1700466871261597e-01" nType="1"/>
          <Node pos="r" depth="2" NCoef="0" IVar="-1" Cut="0.0000000000000000e+00" cType="1" res="-9.9000000000000000e+01" rms="0.0000000000000000e+00" purity="3.7974318861961365e-01" nType="-1"/>
        </Node>
      </Node>
    </BinaryTree>
    <BinaryTree type="DecisionTree" boostWeight="8.2020115351519790e-02" itree="21">
      <Node pos="s" depth="0" NCoef="0" IVar="4" Cut="4.7964382916688919e-02" cType="1" res="-9.9000000000000000e+01" rms="0.0000000000000000e+00" purity="5.0521266460418701e-01" nType="0">
        <Node pos="l" depth="1" NCoef="0" IVar="-1" Cut="1.2199068603515625e+03" cType="0" res="-9.9000000000000000e+01" rms="0.0000000000000000e+00" purity="5.7625484466552734e-01" nType="1"/>
        <Node pos="r" depth="1" NCoef="0" IVar="0" Cut="7.3656146240234375e+02" cType="1" res="-9.9000000000000000e+01" rms="0.0000000000000000e+00" purity="4.8844617605209351e-01" nType="0">
          <Node pos="l" depth="2" NCoef="0" IVar="-1" Cut="0.0000000000000000e+00" cType="1" res="-9.9000000000000000e+01" rms="0.0000000000000000e+00" purity="5.1566511392593384e-01" nType="1"/>
          <Node pos="r" depth="2" NCoef="0" IVar="-1" Cut="0.0000000000000000e+00" cType="1" res="-9.9000000000000000e+01" rms="0.0000000000000000e+00" purity="4.3291467428207397e-01" nType="-1"/>
        </Node>
      </Node>
    </BinaryTree>
    <BinaryTree type="DecisionTree" boostWeight="4.8799146801376640e-02" itree="22">
      <Node pos="s" depth="0" NCoef="0" IVar="5" Cut="5.3959185791015625e+02" cType="0" res="-9.9000000000000000e+01" rms="0.0000000000000000e+00" purity="4.9106213450431824e-01" nType="0">
        <Node pos="l" depth="1" NCoef="0" IVar="5" Cut="1.4780280761718750e+03" cType="0" res="-9.9000000000000000e+01" rms="0.0000000000000000e+00" purity="5.0181913375854492e-01" nType="0">
          <Node pos="l" depth="2" NCoef="0" IVar="-1" Cut="0.0000000000000000e+00" cType="1" res="-9.9000000000000000e+01" rms="0.0000000000000000e+00" purity="5.5908781290054321e-01" nType="1"/>
          <Node pos="r" depth="2" NCoef="0" IVar="-1" Cut="0.0000000000000000e+00" cType="1" res="-9.9000000000000000e+01" rms="0.0000000000000000e+00" purity="4.9175593256950378e-01" nType="-1"/>
        </Node>
        <Node pos="r" depth="1" NCoef="0" IVar="-1" Cut="7.9745721817016602e-01" cType="0" res="-9.9000000000000000e+01" rms="0.0000000000000000e+00" purity="4.1622939705848694e-01" nType="-1"/>
      </Node>
    </BinaryTree>
    <BinaryTree type="DecisionTree" boostWeight="4.4853889589890013e-02" itree="23">
      <Node pos="s" depth="0" NCoef="0" IVar="5" Cut="5.3959185791015625e+02" cType="0" res="-9.9000000000000000e+01" rms="0.0000000000000000e+00" purity="4.9336105585098267e-01" nType="0">
        <Node pos="l" depth="1" NCoef="0" IVar="5" Cut="1.4781004638671875e+03" cType="0" res="-9.9000000000000000e+01" rms="0.0000000000000000e+00" purity="5.0390124320983887e-01" nType="0">
          <Node pos="l" depth="2" NCoef="0" IVar="-1" Cut="0.0000000000000000e+00" cType="1" res="-9.9000000000000000e+01" rms="0.0000000000000000e+00" purity="5.6229239702224731e-01" nType="1"/>
          <Node pos="r" depth="2" NCoef="0" IVar="-1" Cut="0.0000000000000000e+00" cType="1" res="-9.9000000000000000e+01" rms="0.0000000000000000e+00" purity="4.9405506253242493e-01" nType="-1"/>
        </Node>
        <Node pos="r" depth="1" NCoef="0" IVar="-1" Cut="-4.3499149382114410e-02" cType="1" res="-9.9000000000000000e+01" rms="0.0000000000000000e+00" purity="4.1791895031929016e-01" nType="-1"/>
      </Node>
    </BinaryTree>
    <BinaryTree type="DecisionTree" boostWeight="8.6225177728069799e-02" itree="24">
      <Node pos="s" depth="0" NCoef="0" IVar="4" Cut="3.8065385818481445e-01" cType="1" res="-9.9000000000000000e+01" rms="0.0000000000000000e+00" purity="5.0367158651351929e-01" nType="0">
        <Node pos="l" depth="1" NCoef="0" IVar="-1" Cut="1.0447229003906250e+03" cType="0" res="-9.9000000000000000e+01" rms="0.0000000000000000e+00" purity="5.3936743736267090e-01" nType="1"/>
        <Node pos="r" depth="1" NCoef="0" IVar="2" Cut="-1.5696173906326294e-01" cType="1" res="-9.9000000000000000e+01" rms="0.0000000000000000e+00" purity="4.7200417518615723e-01" nType="0">
          <Node pos="l" depth="2" NCoef="0" IVar="-1" Cut="0.0000000000000000e+00" cType="1" res="-9.9000000000000000e+01" rms="0.0000000000000000e+00" purity="5.7526254653930664e-01" nType="1"/>
          <Node pos="r" depth="2" NCoef="0" IVar="-1" Cut="0.0000000000000000e+00" cType="1" res="-9.9000000000000000e+01" rms="0.0000000000000000e+00" purity="4.5776808261871338e-01" nType="-1"/>
        </Node>
      </Node>
    </BinaryTree>
    <BinaryTree type="DecisionTree" boostWeight="6.9008939651931278e-02" itree="25">
      <Node pos="s" depth="0" NCoef="0" IVar="5" Cut="8.7025286865234375e+02" cType="0" res="-9.9000000000000000e+01" rms="0.0000000000000000e+00" purity="4.9909409880638123e-01" nType="0">
        <Node pos="l" depth="1" NCoef="0" IVar="4" Cut="5.7085776329040527e-01" cType="1" res="-9.9000000000000000e+01" rms="0.0000000000000000e+00" purity="5.1853018999099731e-01" nType="0">
          <Node pos="l" depth="2" NCoef="0" IVar="-1" Cut="0.0000000000000000e+00" cType="1" res="-9.9000000000000000e+01" rms="0.0000000000000000e+00" purity="5.3982466459274292e-01" nType="1"/>
          <Node pos="r" depth="2" NCoef="0" IVar="-1" Cut="0.0000000000000000e+00" cType="1" res="-9.9000000000000000e+01" rms="0.0000000000000000e+00" purity="4.7712627053260803e-01" nType="-1"/>
        </Node>
        <Node pos="r" depth="1" NCoef="0" IVar="-1" Cut="1.0985681152343750e+02" cType="1" res="-9.9000000000000000e+01" rms="0.0000000000000000e+00" purity="4.6487730741500854e-01" nType="-1"/>
      </Node>
    </BinaryTree>
    <BinaryTree type="DecisionTree" boostWeight="5.1452645366202997e-02" itree="26">
      <Node pos="s" depth="0" NCoef="0" IVar="6" Cut="1.9883998107910156e+02" cType="0" res="-9.9000000000000000e+01" rms="0.0000000000000000e+00" purity="4.9384084343910217e-01" nType="0">
        <Node pos="l" depth="1" NCoef="0" IVar="-1" Cut="-9.8354190587997437e-02" cType="1" res="-9.9000000000000000e+01" rms="0.0000000000000000e+00" purity="5.5225586891174316e-01" nType="1"/>
        <Node pos="r" depth="1" NCoef="0" IVar="0" Cut="8.2883563232421875e+02" cType="1" res="-9.9000000000000000e+01" rms="0.0000000000000000e+00" purity="4.8302254080772400e-01" nType="0">
          <Node pos="l" depth="2" NCoef="0" IVar="-1" Cut="0.0000000000000000e+00" cType="1" res="-9.9000000000000000e+01" rms="0.0000000000000000e+00" purity="5.0218766927719116e-01" nType="1"/>
          <Node pos="r" depth="2" NCoef="0" IVar="-1" Cut="0.0000000000000000e+00" cType="1" res="-9.9000000000000000e+01" rms="0.0000000000000000e+00" purity="3.5417681932449341e-01" nType="-1"/>
        </Node>
      </Node>
    </BinaryTree>
    <BinaryTree type="DecisionTree" boostWeight="9.6985877102205464e-02" itree="27">
      <Node pos="s" depth="0" NCoef="0" IVar="6" Cut="1.8112799072265625e+02" cType="0" res="-9.9000000000000000e+01" rms="0.0000000000000000e+00" purity="4.8536330461502075e-01" nType="0">
        <Node pos="l" depth="1" NCoef="0" IVar="-1" Cut="4.7534248232841492e-01" cType="0" res="-9.9000000000000000e+01" rms="0.0000000000000000e+00" purity="5.5481362342834473e-01" nType="1"/>
        <Node pos="r" depth="1" NCoef="0" IVar="6" Cut="1.3383981323242188e+02" cType="1" res="-9.9000000000000000e+01" rms="0.0000000000000000e+00" purity="4.6889039874076843e-01" nType="0">
          <Node pos="l" depth="2" NCoef="0" IVar="-1" Cut="0.0000000000000000e+00" cType="1" res="-9.9000000000000000e+01" rms="0.0000000000000000e+00" purity="5.1037985086441040e-01" nType="1"/>
          <Node pos="r" depth="2" NCoef="0" IVar="-1" Cut="0.0000000000000000e+00" cType="1" res="-9.9000000000000000e+01" rms="0.0000000000000000e+00" purity="3.4025946259498596e-01" nType="-1"/>
        </Node>
      </Node>
    </BinaryTree>
    <BinaryTree type="DecisionTree" boostWeight="5.8578626977046314e-02" itree="28">
      <Node pos="s" depth="0" NCoef="0" IVar="5" Cut="6.6052392578125000e+02" cType="0" res="-9.9000000000000000e+01" rms="0.0000000000000000e+00" purity="4.8447433114051819e-01" nType="0">
        <Node pos="l" depth="1" NCoef="0" IVar="5" Cut="1.4812265625000000e+03" cType="0" res="-9.9000000000000000e+01" rms="0.0000000000000000e+00" purity="4.9592354893684387e-01" nType="0">
          <Node pos="l" depth="2" NCoef="0" IVar="-1" Cut="0.0000000000000000e+00" cType="1" res="-9.9000000000000000e+01" rms="0.0000000000000000e+00" purity="5.5240273475646973e-01" nType="1"/>
          <Node pos="r" depth="2" NCoef="0" IVar="-1" Cut="0.0000000000000000e+00" cType="1" res="-9.9000000000000000e+01" rms="0.0000000000000000e+00" purity="4.8523578047752380e-01" nType="-1"/>
        </Node>
        <Node pos="r" depth="1" NCoef="0" IVar="5" Cut="6.0253564453125000e+02" cType="0" res="-9.9000000000000000e+01" rms="0.0000000000000000e+00" purity="4.3853080272674561e-01" nType="0">
          <Node pos="l" depth="2" NCoef="0" IVar="-1" Cut="0.0000000000000000e+00" cType="1" res="-9.9000000000000000e+01" rms="0.0000000000000000e+00" purity="5.0505155324935913e-01" nType="1"/>
          <Node pos="r" depth="2" NCoef="0" IVar="-1" Cut="0.0000000000000000e+00" cType="1" res="-9.9000000000000000e+01" rms="0.0000000000000000e+00" purity="4.2306715250015259e-01" nType="-1"/>
        </Node>
      </Node>
    </BinaryTree>
    <BinaryTree type="DecisionTree" boostWeight="6.2811999243061828e-02" itree="29">
      <Node pos="s" depth="0" NCoef="0" IVar="6" Cut="1.8112799072265625e+02" cType="0" res="-9.9000000000000000e+01" rms="0.0000000000000000e+00" purity="4.8913463950157166e-01" nType="0">
        <Node pos="l" depth="1" NCoef="0" IVar="-1" Cut="7.1257543563842773e-01" cType="0" res="-9.9000000000000000e+01" rms="0.0000000000000000e+00" purity="5.4384022951126099e-01" nType="1"/>
        <Node pos="r" depth="1" NCoef="0" IVar="6" Cut="1.2594708251953125e+02" cType="1" res="-9.9000000000000000e+01" rms="0.0000000000000000e+00" purity="4.7610926628112793e-01" nType="0">
          <Node pos="l" depth="2" NCoef="0" IVar="-1" Cut="0.0000000000000000e+00" cType="1" res="-9.9000000000000000e+01" rms="0.0000000000000000e+00" purity="5.0316756963729858e-01" nType="1"/>
          <Node pos="r" depth="2" NCoef="0" IVar="-1" Cut="0.0000000000000000e+00" cType="1" res="-9.9000000000000000e+01" rms="0.0000000000000000e+00" purity="4.0957361459732056e-01" nType="-1"/>
        </Node>
      </Node>
    </BinaryTree>
    <BinaryTree type="DecisionTree" boostWeight="7.8214122549394346e-02" itree="30">
      <Node pos="s" depth="0" NCoef="0" IVar="2" Cut="-9.9910169839859009e-02" cType="1" res="-9.9000000000000000e+01" rms="0.0000000000000000e+00" purity="4.7765994071960449e-01" nType="0">
        <Node pos="l" depth="1" NCoef="0" IVar="-1" Cut="1.5512944030761719e+02" cType="0" res="-9.9000000000000000e+01" rms="0.0000000000000000e+00" purity="5.4095268249511719e-01" nType="1"/>
        <Node pos="r" depth="1" NCoef="0" IVar="-1" Cut="9.9356427001953125e+02" cType="0" res="-9.9000000000000000e+01" rms="0.0000000000000000e+00" purity="4.6146509051322937e-01" nType="-1"/>
      </Node>
    </BinaryTree>
    <BinaryTree type="DecisionTree" boostWeight="6.2376086652652214e-02" itree="31">
      <Node pos="s" depth="0" NCoef="0" IVar="5" Cut="8.1349865722656250e+02" cType="0" res="-9.9000000000000000e+01" rms="0.0000000000000000e+00" purity="4.9722269177436829e-01" nType="0">
        <Node pos="l" depth="1" NCoef="0" IVar="-1" Cut="1.8112799072265625e+02" cType="0" res="-9.9000000000000000e+01" rms="0.0000000000000000e+00" purity="5.1822030544281006e-01" nType="1"/>
        <Node pos="r" depth="1" NCoef="0" IVar="6" Cut="1.9993638610839844e+02" cType="0" res="-9.9000000000000000e+01" rms="0.0000000000000000e+00" purity="4.5088797807693481e-01" nType="0">
          <Node pos="l" depth="2" NCoef="0" IVar="-1" Cut="0.0000000000000000e+00" cType="1" res="-9.9000000000000000e+01" rms="0.0000000000000000e+00" purity="5.3086131811141968e-01" nType="1"/>
          <Node pos="r" depth="2" NCoef="0" IVar="-1" Cut="0.0000000000000000e+00" cType="1" res="-9.9000000000000000e+01" rms="0.0000000000000000e+00" purity="4.3437728285789490e-01" nType="-1"/>
        </Node>
      </Node>
    </BinaryTree>
    <BinaryTree type="DecisionTree" boostWeight="5.6285157297482728e-02" itree="32">
      <Node pos="s" depth="0" NCoef="0" IVar="6" Cut="2.2552435302734375e+02" cType="0" res="-9.9000000000000000e+01" rms="0.0000000000000000e+00" purity="4.8694133758544922e-01" nType="0">
        <Node pos="l" depth="1" NCoef="0" IVar="-1" Cut="6.3765281438827515e-01" cType="0" res="-9.9000000000000000e+01" rms="0.0000000000000000e+00" purity="5.6485843658447266e-01" nType="1"/>
        <Node pos="r" depth="1" NCoef="0" IVar="-1" Cut="9.8365637207031250e+02" cType="1" res="-9.9000000000000000e+01" rms="0.0000000000000000e+00" purity="4.7671145200729370e-01" nType="-1"/>
      </Node>
    </BinaryTree>
    <BinaryTree type="DecisionTree" boostWeight="4.1996673832352158e-02" itree="33">
      <Node pos="s" depth="0" NCoef="0" IVar="-1" Cut="3.0989746093750000e+02" cType="0" res="-9.9000000000000000e+01" rms="0.0000000000000000e+00" purity="4.7901397943496704e-01" nType="-1"/>
    </BinaryTree>
    <BinaryTree type="DecisionTree" boostWeight="7.6717932057279462e-02" itree="34">
      <Node pos="s" depth="0" NCoef="0" IVar="4" Cut="2.3807425796985626e-01" cType="1" res="-9.9000000000000000e+01" rms="0.0000000000000000e+00" purity="5.0376999378204346e-01" nType="0">
        <Node pos="l" depth="1" NCoef="0" IVar="5" Cut="8.1761450195312500e+02" cType="0" res="-9.9000000000000000e+01" rms="0.0000000000000000e+00" purity="5.4054445028305054e-01" nType="0">
          <Node pos="l" depth="2" NCoef="0" IVar="-1" Cut="0.0000000000000000e+00" cType="1" res="-9.9000000000000000e+01" rms="0.0000000000000000e+00" purity="5.6536769866943359e-01" nType="1"/>
          <Node pos="r" depth="2" NCoef="0" IVar="-1" Cut="0.0000000000000000e+00" cType="1" res="-9.9000000000000000e+01" rms="0.0000000000000000e+00" purity="4.8206493258476257e-01" nType="-1"/>
        </Node>
        <Node pos="r" depth="1" NCoef="0" IVar="0" Cut="8.2429644775390625e+02" cType="1" res="-9.9000000000000000e+01" rms="0.0000000000000000e+00" purity="4.8334029316902161e-01" nType="0">
          <Node pos="l" depth="2" NCoef="0" IVar="-1" Cut="0.0000000000000000e+00" cType="1" res="-9.9000000000000000e+01" rms="0.0000000000000000e+00" purity="5.0996941328048706e-01" nType="1"/>
          <Node pos="r" depth="2" NCoef="0" IVar="-1" Cut="0.0000000000000000e+00" cType="1" res="-9.9000000000000000e+01" rms="0.0000000000000000e+00" purity="4.1358184814453125e-01" nType="-1"/>
        </Node>
      </Node>
    </BinaryTree>
    <BinaryTree type="DecisionTree" boostWeight="3.8183976580844867e-02" itree="35">
      <Node pos="s" depth="0" NCoef="0" IVar="5" Cut="4.6442276000976562e+02" cType="0" res="-9.9000000000000000e+01" rms="0.0000000000000000e+00" purity="4.9991217255592346e-01" nType="0">
        <Node pos="l" depth="1" NCoef="0" IVar="4" Cut="9.5085358619689941e-01" cType="1" res="-9.9000000000000000e+01" rms="0.0000000000000000e+00" purity="5.0595897436141968e-01" nType="0">
          <Node pos="l" depth="2" NCoef="0" IVar="-1" Cut="0.0000000000000000e+00" cType="1" res="-9.9000000000000000e+01" rms="0.0000000000000000e+00" purity="5.1113402843475342e-01" nType="1"/>
          <Node pos="r" depth="2" NCoef="0" IVar="-1" Cut="0.0000000000000000e+00" cType="1" res="-9.9000000000000000e+01" rms="0.0000000000000000e+00" purity="4.3330669403076172e-01" nType="-1"/>
        </Node>
        <Node pos="r" depth="1" NCoef="0" IVar="-1" Cut="7.1590490722656250e+02" cType="1" res="-9.9000000000000000e+01" rms="0.0000000000000000e+00" purity="4.3583244085311890e-01" nType="-1"/>
      </Node>
    </BinaryTree>
    <BinaryTree type="DecisionTree" boostWeight="4.2127534085019562e-02" itree="36">
      <Node pos="s" depth="0" NCoef="0" IVar="3" Cut="4.2829275131225586e-02" cType="0" res="-9.9000000000000000e+01" rms="0.0000000000000000e+00" purity="4.8705813288688660e-01" nType="0">
        <Node pos="l" depth="1" NCoef="0" IVar="6" Cut="3.4705007934570312e+02" cType="0" res="-9.9000000000000000e+01" rms="0.0000000000000000e+00" purity="5.0285589694976807e-01" nType="0">
          <Node pos="l" depth="2" NCoef="0" IVar="-1" Cut="0.0000000000000000e+00" cType="1" res="-9.9000000000000000e+01" rms="0.0000000000000000e+00" purity="6.1514210700988770e-01" nType="1"/>
          <Node pos="r" depth="2" NCoef="0" IVar="-1" Cut="0.0000000000000000e+00" cType="1" res="-9.9000000000000000e+01" rms="0.0000000000000000e+00" purity="4.9735236167907715e-01" nType="-1"/>
        </Node>
        <Node pos="r" depth="1" NCoef="0" IVar="-1" Cut="9.2367762327194214e-01" cType="0" res="-9.9000000000000000e+01" rms="0.0000000000000000e+00" purity="4.3871900439262390e-01" nType="-1"/>
      </Node>
    </BinaryTree>
    <BinaryTree type="DecisionTree" boostWeight="5.5577857120961867e-02" itree="37">
      <Node pos="s" depth="0" NCoef="0" IVar="4" Cut="8.0845999717712402e-01" cType="1" res="-9.9000000000000000e+01" rms="0.0000000000000000e+00" purity="4.9333640933036804e-01" nType="0">
        <Node pos="l" depth="1" NCoef="0" IVar="3" Cut="1.2849152088165283e-01" cType="0" res="-9.9000000000000000e+01" rms="0.0000000000000000e+00" purity="5.0506252050399780e-01" nType="0">
          <Node pos="l" depth="2" NCoef="0" IVar="-1" Cut="0.0000000000000000e+00" cType="1" res="-9.9000000000000000e+01" rms="0.0000000000000000e+00" purity="5.3949522972106934e-01" nType="1"/>
          <Node pos="r" depth="2" NCoef="0" IVar="-1" Cut="0.0000000000000000e+00" cType="1" res="-9.9000000000000000e+01" rms="0.0000000000000000e+00" purity="4.8837038874626160e-01" nType="-1"/>
        </Node>
        <Node pos="r" depth="1" NCoef="0" IVar="-1" Cut="1.3268995666503906e+02" cType="1" res="-9.9000000000000000e+01" rms="0.0000000000000000e+00" purity="4.4062718749046326e-01" nType="-1"/>
      </Node>
    </BinaryTree>
    <BinaryTree type="DecisionTree" boostWeight="7.4046528880834073e-02" itree="38">
      <Node pos="s" depth="0" NCoef="0" IVar="6" Cut="1.6599636840820312e+02" cType="0" res="-9.9000000000000000e+01" rms="0.0000000000000000e+00" purity="4.9314782023429871e-01" nType="0">
        <Node pos="l" depth="1" NCoef="0" IVar="2" Cut="-4.2613383382558823e-02" cType="1" res="-9.9000000000000000e+01" rms="0.0000000000000000e+00" purity="5.3348499536514282e-01" nType="0">
          <Node pos="l" depth="2" NCoef="0" IVar="-1" Cut="0.0000000000000000e+00" cType="1" res="-9.9000000000000000e+01" rms="0.0000000000000000e+00" purity="5.9258228540420532e-01" nType="1"/>
          <Node pos="r" depth="2" NCoef="0" IVar="-1" Cut="0.0000000000000000e+00" cType="1" res="-9.9000000000000000e+01" rms="0.0000000000000000e+00" purity="4.9673914909362793e-01" nType="-1"/>
        </Node>
        <Node pos="r" depth="1" NCoef="0" IVar="6" Cut="1.3019093322753906e+02" cType="1" res="-9.9000000000000000e+01" rms="0.0000000000000000e+00" purity="4.8056384921073914e-01" nType="0">
          <Node pos="l" depth="2" NCoef="0" IVar="-1" Cut="0.0000000000000000e+00" cType="1" res="-9.9000000000000000e+01" rms="0.0000000000000000e+00" purity="5.1121747493743896e-01" nType="1"/>
          <Node pos="r" depth="2" NCoef="0" IVar="-1" Cut="0.0000000000000000e+00" cType="1" res="-9.9000000000000000e+01" rms="0.0000000000000000e+00" purity="3.7602955102920532e-01" nType="-1"/>
        </Node>
      </Node>
    </BinaryTree>
    <BinaryTree type="DecisionTree" boostWeight="4.4099320369287480e-02" itree="39">
      <Node pos="s" depth="0" NCoef="0" IVar="4" Cut="9.5084744691848755e-01" cType="1" res="-9.9000000000000000e+01" rms="0.0000000000000000e+00" purity="5.0031310319900513e-01" nType="0">
        <Node pos="l" depth="1" NCoef="0" IVar="3" Cut="4.2829275131225586e-02" cType="0" res="-9.9000000000000000e+01" rms="0.0000000000000000e+00" purity="5.0703549385070801e-01" nType="0">
          <Node pos="l" depth="2" NCoef="0" IVar="-1" Cut="0.0000000000000000e+00" cType="1" res="-9.9000000000000000e+01" rms="0.0000000000000000e+00" purity="5.1591610908508301e-01" nType="1"/>
          <Node pos="r" depth="2" NCoef="0" IVar="-1" Cut="0.0000000000000000e+00" cType="1" res="-9.9000000000000000e+01" rms="0.0000000000000000e+00" purity="4.8066085577011108e-01" nType="-1"/>
        </Node>
        <Node pos="r" depth="1" NCoef="0" IVar="-1" Cut="1.3426005554199219e+02" cType="1" res="-9.9000000000000000e+01" rms="0.0000000000000000e+00" purity="3.9778670668601990e-01" nType="-1"/>
      </Node>
    </BinaryTree>
    <BinaryTree type="DecisionTree" boostWeight="7.4543345643384537e-02" itree="40">
      <Node pos="s" depth="0" NCoef="0" IVar="2" Cut="-9.9731206893920898e-02" cType="1" res="-9.9000000000000000e+01" rms="0.0000000000000000e+00" purity="4.8183396458625793e-01" nType="0">
        <Node pos="l" depth="1" NCoef="0" IVar="1" Cut="8.5849314928054810e-01" cType="1" res="-9.9000000000000000e+01" rms="0.0000000000000000e+00" purity="5.3320741653442383e-01" nType="0">
          <Node pos="l" depth="2" NCoef="0" IVar="-1" Cut="0.0000000000000000e+00" cType="1" res="-9.9000000000000000e+01" rms="0.0000000000000000e+00" purity="5.8076012134552002e-01" nType="1"/>
          <Node pos="r" depth="2" NCoef="0" IVar="-1" Cut="0.0000000000000000e+00" cType="1" res="-9.9000000000000000e+01" rms="0.0000000000000000e+00" purity="4.6892401576042175e-01" nType="-1"/>
        </Node>
        <Node pos="r" depth="1" NCoef="0" IVar="-1" Cut="3.8068357110023499e-01" cType="1" res="-9.9000000000000000e+01" rms="0.0000000000000000e+00" purity="4.6858304738998413e-01" nType="-1"/>
      </Node>
    </BinaryTree>
    <BinaryTree type="DecisionTree" boostWeight="4.0022920794866128e-02" itree="41">
      <Node pos="s" depth="0" NCoef="0" IVar="6" Cut="2.7473895263671875e+02" cType="0" res="-9.9000000000000000e+01" rms="0.0000000000000000e+00" purity="4.9602431058883667e-01" nType="0">
        <Node pos="l" depth="1" NCoef="0" IVar="-1" Cut="5.3840130567550659e-01" cType="0" res="-9.9000000000000000e+01" rms="0.0000000000000000e+00" purity="5.7906550168991089e-01" nType="1"/>
        <Node pos="r" depth="1" NCoef="0" IVar="0" Cut="8.3146795654296875e+02" cType="1" res="-9.9000000000000000e+01" rms="0.0000000000000000e+00" purity="4.8941242694854736e-01" nType="0">
          <Node pos="l" depth="2" NCoef="0" IVar="-1" Cut="0.0000000000000000e+00" cType="1" res="-9.9000000000000000e+01" rms="0.0000000000000000e+00" purity="5.0285357236862183e-01" nType="1"/>
          <Node pos="r" depth="2" NCoef="0" IVar="-1" Cut="0.0000000000000000e+00" cType="1" res="-9.9000000000000000e+01" rms="0.0000000000000000e+00" purity="4.2589214444160461e-01" nType="-1"/>
        </Node>
      </Node>
    </BinaryTree>
    <BinaryTree type="DecisionTree" boostWeight="4.3365275286308846e-02" itree="42">
      <Node pos="s" depth="0" NCoef="0" IVar="6" Cut="1.6500749206542969e+02" cType="0" res="-9.9000000000000000e+01" rms="0.0000000000000000e+00" purity="4.9445858597755432e-01" nType="0">
        <Node pos="l" depth="1" NCoef="0" IVar="-1" Cut="7.1311485767364502e-01" cType="0" res="-9.9000000000000000e+01" rms="0.0000000000000000e+00" purity="5.3215736150741577e-01" nType="1"/>
        <Node pos="r" depth="1" NCoef="0" IVar="6" Cut="1.2913435363769531e+02" cType="1" res="-9.9000000000000000e+01" rms="0.0000000000000000e+00" purity="4.8280107975006104e-01" nType="0">
          <Node pos="l" depth="2" NCoef="0" IVar="-1" Cut="0.0000000000000000e+00" cType="1" res="-9.9000000000000000e+01" rms="0.0000000000000000e+00" purity="5.0079786777496338e-01" nType="1"/>
          <Node pos="r" depth="2" NCoef="0" IVar="-1" Cut="0.0000000000000000e+00" cType="1" res="-9.9000000000000000e+01" rms="0.0000000000000000e+00" purity="4.2295780777931213e-01" nType="-1"/>
        </Node>
      </Node>
    </BinaryTree>
    <BinaryTree type="DecisionTree" boostWeight="4.7534265683985319e-02" itree="43">
      <Node pos="s" depth="0" NCoef="0" IVar="4" Cut="9.0351927280426025e-01" cType="1" res="-9.9000000000000000e+01" rms="0.0000000000000000e+00" purity="4.8787084221839905e-01" nType="0">
        <Node pos="l" depth="1" NCoef="0" IVar="1" Cut="8.5359233617782593e-01" cType="1" res="-9.9000000000000000e+01" rms="0.0000000000000000e+00" purity="4.9414709210395813e-01" nType="0">
          <Node pos="l" depth="2" NCoef="0" IVar="-1" Cut="0.0000000000000000e+00" cType="1" res="-9.9000000000000000e+01" rms="0.0000000000000000e+00" purity="5.1202797889709473e-01" nType="1"/>
          <Node pos="r" depth="2" NCoef="0" IVar="-1" Cut="0.0000000000000000e+00" cType="1" res="-9.9000000000000000e+01" rms="0.0000000000000000e+00" purity="4.7292587161064148e-01" nType="-1"/>
        </Node>
        <Node pos="r" depth="1" NCoef="0" IVar="-1" Cut="5.6687638163566589e-02" cType="0" res="-9.9000000000000000e+01" rms="0.0000000000000000e+00" purity="4.3706265091896057e-01" nType="-1"/>
      </Node>
    </BinaryTree>
    <BinaryTree type="DecisionTree" boostWeight="4.3281873569230002e-02" itree="44">
      <Node pos="s" depth="0" NCoef="0" IVar="6" Cut="1.8157336425781250e+02" cType="0" res="-9.9000000000000000e+01" rms="0.0000000000000000e+00" purity="4.9424946308135986e-01" nType="0">
        <Node pos="l" depth="1" NCoef="0" IVar="-1" Cut="8.0742585659027100e-01" cType="0" res="-9.9000000000000000e+01" rms="0.0000000000000000e+00" purity="5.3054744005203247e-01" nType="1"/>
        <Node pos="r" depth="1" NCoef="0" IVar="6" Cut="1.3428552246093750e+02" cType="1" res="-9.9000000000000000e+01" rms="0.0000000000000000e+00" purity="4.8563057184219360e-01" nType="0">
          <Node pos="l" depth="2" NCoef="0" IVar="-1" Cut="0.0000000000000000e+00" cType="1" res="-9.9000000000000000e+01" rms="0.0000000000000000e+00" purity="5.0338405370712280e-01" nType="1"/>
          <Node pos="r" depth="2" NCoef="0" IVar="-1" Cut="0.0000000000000000e+00" cType="1" res="-9.9000000000000000e+01" rms="0.0000000000000000e+00" purity="4.2958450317382812e-01" nType="-1"/>
        </Node>
      </Node>
    </BinaryTree>
    <BinaryTree type="DecisionTree" boostWeight="3.7621733140332264e-02" itree="45">
      <Node pos="s" depth="0" NCoef="0" IVar="3" Cut="1.9985428452491760e-01" cType="0" res="-9.9000000000000000e+01" rms="0.0000000000000000e+00" purity="4.9103593826293945e-01" nType="0">
        <Node pos="l" depth="1" NCoef="0" IVar="6" Cut="1.5458435058593750e+02" cType="0" res="-9.9000000000000000e+01" rms="0.0000000000000000e+00" purity="5.3071355819702148e-01" nType="0">
          <Node pos="l" depth="2" NCoef="0" IVar="-1" Cut="0.0000000000000000e+00" cType="1" res="-9.9000000000000000e+01" rms="0.0000000000000000e+00" purity="6.3017135858535767e-01" nType="1"/>
          <Node pos="r" depth="2" NCoef="0" IVar="-1" Cut="0.0000000000000000e+00" cType="1" res="-9.9000000000000000e+01" rms="0.0000000000000000e+00" purity="4.8872688412666321e-01" nType="-1"/>
        </Node>
        <Node pos="r" depth="1" NCoef="0" IVar="-1" Cut="1.9062181934714317e-02" cType="0" res="-9.9000000000000000e+01" rms="0.0000000000000000e+00" purity="4.8524814844131470e-01" nType="-1"/>
      </Node>
    </BinaryTree>
    <BinaryTree type="DecisionTree" boostWeight="4.3501590880515917e-02" itree="46">
      <Node pos="s" depth="0" NCoef="0" IVar="0" Cut="8.2425390625000000e+02" cType="1" res="-9.9000000000000000e+01" rms="0.0000000000000000e+00" purity="5.0040328502655029e-01" nType="0">
        <Node pos="l" depth="1" NCoef="0" IVar="-1" Cut="9.5150583982467651e-01" cType="0" res="-9.9000000000000000e+01" rms="0.0000000000000000e+00" purity="5.0972330570220947e-01" nType="1"/>
        <Node pos="r" depth="1" NCoef="0" IVar="6" Cut="2.3458296203613281e+02" cType="0" res="-9.9000000000000000e+01" rms="0.0000000000000000e+00" purity="4.7239786386489868e-01" nType="0">
          <Node pos="l" depth="2" NCoef="0" IVar="-1" Cut="0.0000000000000000e+00" cType="1" res="-9.9000000000000000e+01" rms="0.0000000000000000e+00" purity="5.3567630052566528e-01" nType="1"/>
          <Node pos="r" depth="2" NCoef="0" IVar="-1" Cut="0.0000000000000000e+00" cType="1" res="-9.9000000000000000e+01" rms="0.0000000000000000e+00" purity="4.2586857080459595e-01" nType="-1"/>
        </Node>
      </Node>
    </BinaryTree>
    <BinaryTree type="DecisionTree" boostWeight="5.4760993461094642e-02" itree="47">
      <Node pos="s" depth="0" NCoef="0" IVar="5" Cut="5.6371514892578125e+02" cType="0" res="-9.9000000000000000e+01" rms="0.0000000000000000e+00" purity="4.9155873060226440e-01" nType="0">
        <Node pos="l" depth="1" NCoef="0" IVar="6" Cut="1.6308303833007812e+02" cType="0" res="-9.9000000000000000e+01" rms="0.0000000000000000e+00" purity="4.9912130832672119e-01" nType="0">
          <Node pos="l" depth="2" NCoef="0" IVar="-1" Cut="0.0000000000000000e+00" cType="1" res="-9.9000000000000000e+01" rms="0.0000000000000000e+00" purity="5.4526495933532715e-01" nType="1"/>
          <Node pos="r" depth="2" NCoef="0" IVar="-1" Cut="0.0000000000000000e+00" cType="1" res="-9.9000000000000000e+01" rms="0.0000000000000000e+00" purity="4.8437920212745667e-01" nType="-1"/>
        </Node>
        <Node pos="r" depth="1" NCoef="0" IVar="-1" Cut="3.8077315688133240e-01" cType="1" res="-9.9000000000000000e+01" rms="0.0000000000000000e+00" purity="4.4400939345359802e-01" nType="-1"/>
      </Node>
    </BinaryTree>
    <BinaryTree type="DecisionTree" boostWeight="5.8124954556194638e-02" itree="48">
      <Node pos="s" depth="0" NCoef="0" IVar="1" Cut="6.3153481483459473e-01" cType="1" res="-9.9000000000000000e+01" rms="0.0000000000000000e+00" purity="4.8321467638015747e-01" nType="0">
        <Node pos="l" depth="1" NCoef="0" IVar="0" Cut="1.2628441162109375e+03" cType="1" res="-9.9000000000000000e+01" rms="0.0000000000000000e+00" purity="5.3050583600997925e-01" nType="0">
          <Node pos="l" depth="2" NCoef="0" IVar="-1" Cut="0.0000000000000000e+00" cType="1" res="-9.9000000000000000e+01" rms="0.0000000000000000e+00" purity="5.9226220846176147e-01" nType="1"/>
          <Node pos="r" depth="2" NCoef="0" IVar="-1" Cut="0.0000000000000000e+00" cType="1" res="-9.9000000000000000e+01" rms="0.0000000000000000e+00" purity="4.6227243542671204e-01" nType="-1"/>
        </Node>
        <Node pos="r" depth="1" NCoef="0" IVar="-1" Cut="9.0332466363906860e-01" cType="1" res="-9.9000000000000000e+01" rms="0.0000000000000000e+00" purity="4.7637125849723816e-01" nType="-1"/>
      </Node>
    </BinaryTree>
    <BinaryTree type="DecisionTree" boostWeight="3.6457687114550955e-02" itree="49">
      <Node pos="s" depth="0" NCoef="0" IVar="4" Cut="8.0819797515869141e-01" cType="1" res="-9.9000000000000000e+01" rms="0.0000000000000000e+00" purity="4.9893626570701599e-01" nType="0">
        <Node pos="l" depth="1" NCoef="0" IVar="2" Cut="9.9463544785976410e-02" cType="0" res="-9.9000000000000000e+01" rms="0.0000000000000000e+00" purity="5.0943070650100708e-01" nType="0">
          <Node pos="l" depth="2" NCoef="0" IVar="-1" Cut="0.0000000000000000e+00" cType="1" res="-9.9000000000000000e+01" rms="0.0000000000000000e+00" purity="5.3767174482345581e-01" nType="1"/>
          <Node pos="r" depth="2" NCoef="0" IVar="-1" Cut="0.0000000000000000e+00" cType="1" res="-9.9000000000000000e+01" rms="0.0000000000000000e+00" purity="4.9900746345520020e-01" nType="-1"/>
        </Node>
        <Node pos="r" depth="1" NCoef="0" IVar="0" Cut="4.5992276000976562e+02" cType="1" res="-9.9000000000000000e+01" rms="0.0000000000000000e+00" purity="4.5069968700408936e-01" nType="0">
          <Node pos="l" depth="2" NCoef="0" IVar="-1" Cut="0.0000000000000000e+00" cType="1" res="-9.9000000000000000e+01" rms="0.0000000000000000e+00" purity="5.0271075963973999e-01" nType="1"/>
          <Node pos="r" depth="2" NCoef="0" IVar="-1" Cut="0.0000000000000000e+00" cType="1" res="-9.9000000000000000e+01" rms="0.0000000000000000e+00" purity="4.0066763758659363e-01" nType="-1"/>
        </Node>
      </Node>
    </BinaryTree>
    <BinaryTree type="DecisionTree" boostWeight="6.5453627400057071e-02" itree="50">
      <Node pos="s" depth="0" NCoef="0" IVar="0" Cut="9.1644158935546875e+02" cType="1" res="-9.9000000000000000e+01" rms="0.0000000000000000e+00" purity="5.1128804683685303e-01" nType="0">
        <Node pos="l" depth="1" NCoef="0" IVar="0" Cut="2.3417076110839844e+02" cType="0" res="-9.9000000000000000e+01" rms="0.0000000000000000e+00" purity="5.2147787809371948e-01" nType="0">
          <Node pos="l" depth="2" NCoef="0" IVar="-1" Cut="0.0000000000000000e+00" cType="1" res="-9.9000000000000000e+01" rms="0.0000000000000000e+00" purity="5.3042870759963989e-01" nType="1"/>
          <Node pos="r" depth="2" NCoef="0" IVar="-1" Cut="0.0000000000000000e+00" cType="1" res="-9.9000000000000000e+01" rms="0.0000000000000000e+00" purity="4.4034841656684875e-01" nType="-1"/>
        </Node>
        <Node pos="r" depth="1" NCoef="0" IVar="-1" Cut="5.9582214355468750e+02" cType="0" res="-9.9000000000000000e+01" rms="0.0000000000000000e+00" purity="4.6996495127677917e-01" nType="-1"/>
      </Node>
    </BinaryTree>
    <BinaryTree type="DecisionTree" boostWeight="3.4933928676344712e-02" itree="51">
      <Node pos="s" depth="0" NCoef="0" IVar="6" Cut="1.8272746276855469e+02" cType="0" res="-9.9000000000000000e+01" rms="0.0000000000000000e+00" purity="5.0118094682693481e-01" nType="0">
        <Node pos="l" depth="1" NCoef="0" IVar="4" Cut="4.2795929312705994e-01" cType="0" res="-9.9000000000000000e+01" rms="0.0000000000000000e+00" purity="5.4474747180938721e-01" nType="0">
          <Node pos="l" depth="2" NCoef="0" IVar="-1" Cut="0.0000000000000000e+00" cType="1" res="-9.9000000000000000e+01" rms="0.0000000000000000e+00" purity="5.9896034002304077e-01" nType="1"/>
          <Node pos="r" depth="2" NCoef="0" IVar="-1" Cut="0.0000000000000000e+00" cType="1" res="-9.9000000000000000e+01" rms="0.0000000000000000e+00" purity="4.8808696866035461e-01" nType="-1"/>
        </Node>
        <Node pos="r" depth="1" NCoef="0" IVar="-1" Cut="1.1472003173828125e+03" cType="1" res="-9.9000000000000000e+01" rms="0.0000000000000000e+00" purity="4.9133762717247009e-01" nType="-1"/>
      </Node>
    </BinaryTree>
    <BinaryTree type="DecisionTree" boostWeight="6.0657163372782617e-02" itree="52">
      <Node pos="s" depth="0" NCoef="0" IVar="6" Cut="1.8112799072265625e+02" cType="0" res="-9.9000000000000000e+01" rms="0.0000000000000000e+00" purity="5.0220757722854614e-01" nType="0">
        <Node pos="l" depth="1" NCoef="0" IVar="-1" Cut="7.1276956796646118e-01" cType="0" res="-9.9000000000000000e+01" rms="0.0000000000000000e+00" purity="5.3632515668869019e-01" nType="1"/>
        <Node pos="r" depth="1" NCoef="0" IVar="6" Cut="1.3380244445800781e+02" cType="1" res="-9.9000000000000000e+01" rms="0.0000000000000000e+00" purity="4.9397826194763184e-01" nType="0">
          <Node pos="l" depth="2" NCoef="0" IVar="-1" Cut="0.0000000000000000e+00" cType="1" res="-9.9000000000000000e+01" rms="0.0000000000000000e+00" purity="5.1510447263717651e-01" nType="1"/>
          <Node pos="r" depth="2" NCoef="0" IVar="-1" Cut="0.0000000000000000e+00" cType="1" res="-9.9000000000000000e+01" rms="0.0000000000000000e+00" purity="4.2879772186279297e-01" nType="-1"/>
        </Node>
      </Node>
    </BinaryTree>
    <BinaryTree type="DecisionTree" boostWeight="4.0762290611682558e-02" itree="53">
      <Node pos="s" depth="0" NCoef="0" IVar="6" Cut="1.8008706665039062e+02" cType="0" res="-9.9000000000000000e+01" rms="0.0000000000000000e+00" purity="4.9216213822364807e-01" nType="0">
        <Node pos="l" depth="1" NCoef="0" IVar="-1" Cut="1.2599082291126251e-01" cType="0" res="-9.9000000000000000e+01" rms="0.0000000000000000e+00" purity="5.3124433755874634e-01" nType="1"/>
        <Node pos="r" depth="1" NCoef="0" IVar="6" Cut="1.3276957702636719e+02" cType="1" res="-9.9000000000000000e+01" rms="0.0000000000000000e+00" purity="4.8276415467262268e-01" nType="0">
          <Node pos="l" depth="2" NCoef="0" IVar="-1" Cut="0.0000000000000000e+00" cType="1" res="-9.9000000000000000e+01" rms="0.0000000000000000e+00" purity="5.0034129619598389e-01" nType="1"/>
          <Node pos="r" depth="2" NCoef="0" IVar="-1" Cut="0.0000000000000000e+00" cType="1" res="-9.9000000000000000e+01" rms="0.0000000000000000e+00" purity="4.2700576782226562e-01" nType="-1"/>
        </Node>
      </Node>
    </BinaryTree>
    <BinaryTree type="DecisionTree" boostWeight="4.4263771122807813e-02" itree="54">
      <Node pos="s" depth="0" NCoef="0" IVar="3" Cut="1.9958482682704926e-01" cType="0" res="-9.9000000000000000e+01" rms="0.0000000000000000e+00" purity="4.8799186944961548e-01" nType="0">
        <Node pos="l" depth="1" NCoef="0" IVar="5" Cut="9.3852349853515625e+02" cType="0" res="-9.9000000000000000e+01" rms="0.0000000000000000e+00" purity="5.3489196300506592e-01" nType="0">
          <Node pos="l" depth="2" NCoef="0" IVar="-1" Cut="0.0000000000000000e+00" cType="1" res="-9.9000000000000000e+01" rms="0.0000000000000000e+00" purity="5.6419837474822998e-01" nType="1"/>
          <Node pos="r" depth="2" NCoef="0" IVar="-1" Cut="0.0000000000000000e+00" cType="1" res="-9.9000000000000000e+01" rms="0.0000000000000000e+00" purity="4.9044996500015259e-01" nType="-1"/>
        </Node>
        <Node pos="r" depth="1" NCoef="0" IVar="-1" Cut="6.0726727294921875e+02" cType="0" res="-9.9000000000000000e+01" rms="0.0000000000000000e+00" purity="4.8094317317008972e-01" nType="-1"/>
      </Node>
    </BinaryTree>
    <BinaryTree type="DecisionTree" boostWeight="5.2157713857977753e-02" itree="55">
      <Node pos="s" depth="0" NCoef="0" IVar="6" Cut="1.6680078125000000e+02" cType="0" res="-9.9000000000000000e+01" rms="0.0000000000000000e+00" purity="4.9606063961982727e-01" nType="0">
        <Node pos="l" depth="1" NCoef="0" IVar="-1" Cut="8.0742233991622925e-01" cType="0" res="-9.9000000000000000e+01" rms="0.0000000000000000e+00" purity="5.3261846303939819e-01" nType="1"/>
        <Node pos="r" depth="1" NCoef="0" IVar="6" Cut="1.3100524902343750e+02" cType="1" res="-9.9000000000000000e+01" rms="0.0000000000000000e+00" purity="4.8525699973106384e-01" nType="0">
          <Node pos="l" depth="2" NCoef="0" IVar="-1" Cut="0.0000000000000000e+00" cType="1" res="-9.9000000000000000e+01" rms="0.0000000000000000e+00" purity="5.0604724884033203e-01" nType="1"/>
          <Node pos="r" depth="2" NCoef="0" IVar="-1" Cut="0.0000000000000000e+00" cType="1" res="-9.9000000000000000e+01" rms="0.0000000000000000e+00" purity="4.1366419196128845e-01" nType="-1"/>
        </Node>
      </Node>
    </BinaryTree>
    <BinaryTree type="DecisionTree" boostWeight="3.4526141797480973e-02" itree="56">
      <Node pos="s" depth="0" NCoef="0" IVar="4" Cut="8.0820965766906738e-01" cType="1" res="-9.9000000000000000e+01" rms="0.0000000000000000e+00" purity="4.9009969830513000e-01" nType="0">
        <Node pos="l" depth="1" NCoef="0" IVar="3" Cut="2.4267303943634033e-01" cType="1" res="-9.9000000000000000e+01" rms="0.0000000000000000e+00" purity="4.9872916936874390e-01" nType="0">
          <Node pos="l" depth="2" NCoef="0" IVar="-1" Cut="0.0000000000000000e+00" cType="1" res="-9.9000000000000000e+01" rms="0.0000000000000000e+00" purity="5.0247853994369507e-01" nType="1"/>
          <Node pos="r" depth="2" NCoef="0" IVar="-1" Cut="0.0000000000000000e+00" cType="1" res="-9.9000000000000000e+01" rms="0.0000000000000000e+00" purity="4.0068167448043823e-01" nType="-1"/>
        </Node>
        <Node pos="r" depth="1" NCoef="0" IVar="1" Cut="9.2446726560592651e-01" cType="0" res="-9.9000000000000000e+01" rms="0.0000000000000000e+00" purity="4.5153903961181641e-01" nType="0">
          <Node pos="l" depth="2" NCoef="0" IVar="-1" Cut="0.0000000000000000e+00" cType="1" res="-9.9000000000000000e+01" rms="0.0000000000000000e+00" purity="5.4736179113388062e-01" nType="1"/>
          <Node pos="r" depth="2" NCoef="0" IVar="-1" Cut="0.0000000000000000e+00" cType="1" res="-9.9000000000000000e+01" rms="0.0000000000000000e+00" purity="4.2766860127449036e-01" nType="-1"/>
        </Node>
      </Node>
    </BinaryTree>
    <BinaryTree type="DecisionTree" boostWeight="2.7693121298532311e-02" itree="57">
      <Node pos="s" depth="0" NCoef="0" IVar="5" Cut="4.5137103271484375e+02" cType="0" res="-9.9000000000000000e+01" rms="0.0000000000000000e+00" purity="5.0302702188491821e-01" nType="0">
        <Node pos="l" depth="1" NCoef="0" IVar="3" Cut="1.7063246667385101e-01" cType="0" res="-9.9000000000000000e+01" rms="0.0000000000000000e+00" purity="5.0817406177520752e-01" nType="0">
          <Node pos="l" depth="2" NCoef="0" IVar="-1" Cut="0.0000000000000000e+00" cType="1" res="-9.9000000000000000e+01" rms="0.0000000000000000e+00" purity="5.4462140798568726e-01" nType="1"/>
          <Node pos="r" depth="2" NCoef="0" IVar="-1" Cut="0.0000000000000000e+00" cType="1" res="-9.9000000000000000e+01" rms="0.0000000000000000e+00" purity="4.9874988198280334e-01" nType="-1"/>
        </Node>
        <Node pos="r" depth="1" NCoef="0" IVar="-1" Cut="5.7080924510955811e-01" cType="1" res="-9.9000000000000000e+01" rms="0.0000000000000000e+00" purity="4.4374176859855652e-01" nType="-1"/>
      </Node>
    </BinaryTree>
    <BinaryTree type="DecisionTree" boostWeight="6.0959871855954764e-02" itree="58">
      <Node pos="s" depth="0" NCoef="0" IVar="6" Cut="9.0812683105468750e+01" cType="0" res="-9.9000000000000000e+01" rms="0.0000000000000000e+00" purity="4.9447193741798401e-01" nType="0">
        <Node pos="l" depth="1" NCoef="0" IVar="4" Cut="4.7558572888374329e-01" cType="1" res="-9.9000000000000000e+01" rms="0.0000000000000000e+00" purity="5.0513333082199097e-01" nType="0">
          <Node pos="l" depth="2" NCoef="0" IVar="-1" Cut="0.0000000000000000e+00" cType="1" res="-9.9000000000000000e+01" rms="0.0000000000000000e+00" purity="5.2709579467773438e-01" nType="1"/>
          <Node pos="r" depth="2" NCoef="0" IVar="-1" Cut="0.0000000000000000e+00" cType="1" res="-9.9000000000000000e+01" rms="0.0000000000000000e+00" purity="4.7950589656829834e-01" nType="-1"/>
        </Node>
        <Node pos="r" depth="1" NCoef="0" IVar="5" Cut="1.4167702636718750e+03" cType="0" res="-9.9000000000000000e+01" rms="0.0000000000000000e+00" purity="4.7984778881072998e-01" nType="0">
          <Node pos="l" depth="2" NCoef="0" IVar="-1" Cut="0.0000000000000000e+00" cType="1" res="-9.9000000000000000e+01" rms="0.0000000000000000e+00" purity="5.5687183141708374e-01" nType="1"/>
          <Node pos="r" depth="2" NCoef="0" IVar="-1" Cut="0.0000000000000000e+00" cType="1" res="-9.9000000000000000e+01" rms="0.0000000000000000e+00" purity="4.6434342861175537e-01" nType="-1"/>
        </Node>
      </Node>
    </BinaryTree>
    <BinaryTree type="DecisionTree" boostWeight="5.8692297437445813e-02" itree="59">
      <Node pos="s" depth="0" NCoef="0" IVar="5" Cut="6.6480444335937500e+02" cType="0" res="-9.9000000000000000e+01" rms="0.0000000000000000e+00" purity="4.9870255589485168e-01" nType="0">
        <Node pos="l" depth="1" NCoef="0" IVar="2" Cut="1.4792738482356071e-02" cType="1" res="-9.9000000000000000e+01" rms="0.0000000000000000e+00" purity="5.0929856300354004e-01" nType="0">
          <Node pos="l" depth="2" NCoef="0" IVar="-1" Cut="0.0000000000000000e+00" cType="1" res="-9.9000000000000000e+01" rms="0.0000000000000000e+00" purity="5.2881270647048950e-01" nType="1"/>
          <Node pos="r" depth="2" NCoef="0" IVar="-1" Cut="0.0000000000000000e+00" cType="1" res="-9.9000000000000000e+01" rms="0.0000000000000000e+00" purity="4.8825323581695557e-01" nType="-1"/>
        </Node>
        <Node pos="r" depth="1" NCoef="0" IVar="5" Cut="6.0694854736328125e+02" cType="0" res="-9.9000000000000000e+01" rms="0.0000000000000000e+00" purity="4.5620909333229065e-01" nType="0">
          <Node pos="l" depth="2" NCoef="0" IVar="-1" Cut="0.0000000000000000e+00" cType="1" res="-9.9000000000000000e+01" rms="0.0000000000000000e+00" purity="5.5161410570144653e-01" nType="1"/>
          <Node pos="r" depth="2" NCoef="0" IVar="-1" Cut="0.0000000000000000e+00" cType="1" res="-9.9000000000000000e+01" rms="0.0000000000000000e+00" purity="4.3263378739356995e-01" nType="-1"/>
        </Node>
      </Node>
    </BinaryTree>
    <BinaryTree type="DecisionTree" boostWeight="3.3188716810802023e-02" itree="60">
      <Node pos="s" depth="0" NCoef="0" IVar="1" Cut="5.6909710168838501e-01" cType="1" res="-9.9000000000000000e+01" rms="0.0000000000000000e+00" purity="4.9667382240295410e-01" nType="0">
        <Node pos="l" depth="1" NCoef="0" IVar="3" Cut="5.1452685147523880e-02" cType="1" res="-9.9000000000000000e+01" rms="0.0000000000000000e+00" purity="5.4409587383270264e-01" nType="0">
          <Node pos="l" depth="2" NCoef="0" IVar="-1" Cut="0.0000000000000000e+00" cType="1" res="-9.9000000000000000e+01" rms="0.0000000000000000e+00" purity="6.1960738897323608e-01" nType="1"/>
          <Node pos="r" depth="2" NCoef="0" IVar="-1" Cut="0.0000000000000000e+00" cType="1" res="-9.9000000000000000e+01" rms="0.0000000000000000e+00" purity="4.8877650499343872e-01" nType="-1"/>
        </Node>
        <Node pos="r" depth="1" NCoef="0" IVar="5" Cut="1.6767088623046875e+03" cType="0" res="-9.9000000000000000e+01" rms="0.0000000000000000e+00" purity="4.9252420663833618e-01" nType="0">
          <Node pos="l" depth="2" NCoef="0" IVar="-1" Cut="0.0000000000000000e+00" cType="1" res="-9.9000000000000000e+01" rms="0.0000000000000000e+00" purity="5.6845331192016602e-01" nType="1"/>
          <Node pos="r" depth="2" NCoef="0" IVar="-1" Cut="0.0000000000000000e+00" cType="1" res="-9.9000000000000000e+01" rms="0.0000000000000000e+00" purity="4.8930296301841736e-01" nType="-1"/>
        </Node>
      </Node>
    </BinaryTree>
    <BinaryTree type="DecisionTree" boostWeight="4.2966096898766161e-02" itree="61">
      <Node pos="s" depth="0" NCoef="0" IVar="3" Cut="2.8558144345879555e-02" cType="0" res="-9.9000000000000000e+01" rms="0.0000000000000000e+00" purity="5.0548690557479858e-01" nType="0">
        <Node pos="l" depth="1" NCoef="0" IVar="0" Cut="1.2316386718750000e+03" cType="1" res="-9.9000000000000000e+01" rms="0.0000000000000000e+00" purity="5.1094734668731689e-01" nType="0">
          <Node pos="l" depth="2" NCoef="0" IVar="-1" Cut="0.0000000000000000e+00" cType="1" res="-9.9000000000000000e+01" rms="0.0000000000000000e+00" purity="5.1574110984802246e-01" nType="1"/>
          <Node pos="r" depth="2" NCoef="0" IVar="-1" Cut="0.0000000000000000e+00" cType="1" res="-9.9000000000000000e+01" rms="0.0000000000000000e+00" purity="4.6792107820510864e-01" nType="-1"/>
        </Node>
        <Node pos="r" depth="1" NCoef="0" IVar="4" Cut="3.8033145666122437e-01" cType="1" res="-9.9000000000000000e+01" rms="0.0000000000000000e+00" purity="4.7888076305389404e-01" nType="0">
          <Node pos="l" depth="2" NCoef="0" IVar="-1" Cut="0.0000000000000000e+00" cType="1" res="-9.9000000000000000e+01" rms="0.0000000000000000e+00" purity="5.1981478929519653e-01" nType="1"/>
          <Node pos="r" depth="2" NCoef="0" IVar="-1" Cut="0.0000000000000000e+00" cType="1" res="-9.9000000000000000e+01" rms="0.0000000000000000e+00" purity="4.3596222996711731e-01" nType="-1"/>
        </Node>
      </Node>
    </BinaryTree>
    <BinaryTree type="DecisionTree" boostWeight="2.8987491900190503e-02" itree="62">
      <Node pos="s" depth="0" NCoef="0" IVar="5" Cut="3.4966934204101562e+02" cType="0" res="-9.9000000000000000e+01" rms="0.0000000000000000e+00" purity="4.9755898118019104e-01" nType="0">
        <Node pos="l" depth="1" NCoef="0" IVar="4" Cut="5.2332204580307007e-01" cType="0" res="-9.9000000000000000e+01" rms="0.0000000000000000e+00" purity="5.0035339593887329e-01" nType="0">
          <Node pos="l" depth="2" NCoef="0" IVar="-1" Cut="0.0000000000000000e+00" cType="1" res="-9.9000000000000000e+01" rms="0.0000000000000000e+00" purity="5.1603657007217407e-01" nType="1"/>
          <Node pos="r" depth="2" NCoef="0" IVar="-1" Cut="0.0000000000000000e+00" cType="1" res="-9.9000000000000000e+01" rms="0.0000000000000000e+00" purity="4.9018314480781555e-01" nType="-1"/>
        </Node>
        <Node pos="r" depth="1" NCoef="0" IVar="-1" Cut="0.0000000000000000e+00" cType="1" res="-9.9000000000000000e+01" rms="0.0000000000000000e+00" purity="4.3830844759941101e-01" nType="-1"/>
      </Node>
    </BinaryTree>
    <BinaryTree type="DecisionTree" boostWeight="3.0210983646990146e-02" itree="63">
      <Node pos="s" depth="0" NCoef="0" IVar="4" Cut="9.0319347381591797e-01" cType="1" res="-9.9000000000000000e+01" rms="0.0000000000000000e+00" purity="4.9524515867233276e-01" nType="0">
        <Node pos="l" depth="1" NCoef="0" IVar="2" Cut="-1.8571224808692932e-01" cType="0" res="-9.9000000000000000e+01" rms="0.0000000000000000e+00" purity="4.9997091293334961e-01" nType="0">
          <Node pos="l" depth="2" NCoef="0" IVar="-1" Cut="0.0000000000000000e+00" cType="1" res="-9.9000000000000000e+01" rms="0.0000000000000000e+00" purity="5.0353646278381348e-01" nType="1"/>
          <Node pos="r" depth="2" NCoef="0" IVar="-1" Cut="0.0000000000000000e+00" cType="1" res="-9.9000000000000000e+01" rms="0.0000000000000000e+00" purity="4.4361707568168640e-01" nType="-1"/>
        </Node>
        <Node pos="r" depth="1" NCoef="0" IVar="6" Cut="1.4655767822265625e+02" cType="0" res="-9.9000000000000000e+01" rms="0.0000000000000000e+00" purity="4.5775920152664185e-01" nType="0">
          <Node pos="l" depth="2" NCoef="0" IVar="-1" Cut="0.0000000000000000e+00" cType="1" res="-9.9000000000000000e+01" rms="0.0000000000000000e+00" purity="5.6834065914154053e-01" nType="1"/>
          <Node pos="r" depth="2" NCoef="0" IVar="-1" Cut="0.0000000000000000e+00" cType="1" res="-9.9000000000000000e+01" rms="0.0000000000000000e+00" purity="4.1257509589195251e-01" nType="-1"/>
        </Node>
      </Node>
    </BinaryTree>
    <BinaryTree type="DecisionTree" boostWeight="4.0343440086532213e-02" itree="64">
      <Node pos="s" depth="0" NCoef="0" IVar="5" Cut="5.5264355468750000e+02" cType="0" res="-9.9000000000000000e+01" rms="0.0000000000000000e+00" purity="4.8593503236770630e-01" nType="0">
        <Node pos="l" depth="1" NCoef="0" IVar="4" Cut="5.7062447071075439e-01" cType="1" res="-9.9000000000000000e+01" rms="0.0000000000000000e+00" purity="4.9264210462570190e-01" nType="0">
          <Node pos="l" depth="2" NCoef="0" IVar="-1" Cut="0.0000000000000000e+00" cType="1" res="-9.9000000000000000e+01" rms="0.0000000000000000e+00" purity="5.0347357988357544e-01" nType="1"/>
          <Node pos="r" depth="2" NCoef="0" IVar="-1" Cut="0.0000000000000000e+00" cType="1" res="-9.9000000000000000e+01" rms="0.0000000000000000e+00" purity="4.7139289975166321e-01" nType="-1"/>
        </Node>
        <Node pos="r" depth="1" NCoef="0" IVar="2" Cut="1.2831033766269684e-01" cType="0" res="-9.9000000000000000e+01" rms="0.0000000000000000e+00" purity="4.4238802790641785e-01" nType="0">
          <Node pos="l" depth="2" NCoef="0" IVar="-1" Cut="0.0000000000000000e+00" cType="1" res="-9.9000000000000000e+01" rms="0.0000000000000000e+00" purity="5.3507405519485474e-01" nType="1"/>
          <Node pos="r" depth="2" NCoef="0" IVar="-1" Cut="0.0000000000000000e+00" cType="1" res="-9.9000000000000000e+01" rms="0.0000000000000000e+00" purity="4.1544705629348755e-01" nType="-1"/>
        </Node>
      </Node>
    </BinaryTree>
    <BinaryTree type="DecisionTree" boostWeight="3.5530178206058131e-02" itree="65">
      <Node pos="s" depth="0" NCoef="0" IVar="1" Cut="6.7017632722854614e-01" cType="1" res="-9.9000000000000000e+01" rms="0.0000000000000000e+00" purity="4.9826973676681519e-01" nType="0">
        <Node pos="l" depth="1" NCoef="0" IVar="4" Cut="5.2236503362655640e-01" cType="0" res="-9.9000000000000000e+01" rms="0.0000000000000000e+00" purity="5.3028535842895508e-01" nType="0">
          <Node pos="l" depth="2" NCoef="0" IVar="-1" Cut="0.0000000000000000e+00" cType="1" res="-9.9000000000000000e+01" rms="0.0000000000000000e+00" purity="6.0006177425384521e-01" nType="1"/>
          <Node pos="r" depth="2" NCoef="0" IVar="-1" Cut="0.0000000000000000e+00" cType="1" res="-9.9000000000000000e+01" rms="0.0000000000000000e+00" purity="4.8731598258018494e-01" nType="-1"/>
        </Node>
        <Node pos="r" depth="1" NCoef="0" IVar="0" Cut="6.6958056640625000e+02" cType="1" res="-9.9000000000000000e+01" rms="0.0000000000000000e+00" purity="4.9210715293884277e-01" nType="0">
          <Node pos="l" depth="2" NCoef="0" IVar="-1" Cut="0.0000000000000000e+00" cType="1" res="-9.9000000000000000e+01" rms="0.0000000000000000e+00" purity="5.0289726257324219e-01" nType="1"/>
          <Node pos="r" depth="2" NCoef="0" IVar="-1" Cut="0.0000000000000000e+00" cType="1" res="-9.9000000000000000e+01" rms="0.0000000000000000e+00" purity="4.5703196525573730e-01" nType="-1"/>
        </Node>
      </Node>
    </BinaryTree>
    <BinaryTree type="DecisionTree" boostWeight="4.9685616569442995e-02" itree="66">
      <Node pos="s" depth="0" NCoef="0" IVar="2" Cut="-2.1440635621547699e-01" cType="1" res="-9.9000000000000000e+01" rms="0.0000000000000000e+00" purity="4.8833659291267395e-01" nType="0">
        <Node pos="l" depth="1" NCoef="0" IVar="-1" Cut="0.0000000000000000e+00" cType="1" res="-9.9000000000000000e+01" rms="0.0000000000000000e+00" purity="5.6593883037567139e-01" nType="1"/>
        <Node pos="r" depth="1" NCoef="0" IVar="4" Cut="4.7973118722438812e-02" cType="1" res="-9.9000000000000000e+01" rms="0.0000000000000000e+00" purity="4.8461440205574036e-01" nType="0">
          <Node pos="l" depth="2" NCoef="0" IVar="-1" Cut="0.0000000000000000e+00" cType="1" res="-9.9000000000000000e+01" rms="0.0000000000000000e+00" purity="5.1965779066085815e-01" nType="1"/>
          <Node pos="r" depth="2" NCoef="0" IVar="-1" Cut="0.0000000000000000e+00" cType="1" res="-9.9000000000000000e+01" rms="0.0000000000000000e+00" purity="4.7640162706375122e-01" nType="-1"/>
        </Node>
      </Node>
    </BinaryTree>
    <BinaryTree type="DecisionTree" boostWeight="5.5280594045261117e-02" itree="67">
      <Node pos="s" depth="0" NCoef="0" IVar="6" Cut="1.0598201751708984e+02" cType="0" res="-9.9000000000000000e+01" rms="0.0000000000000000e+00" purity="4.8558428883552551e-01" nType="0">
        <Node pos="l" depth="1" NCoef="0" IVar="2" Cut="4.2058728635311127e-02" cType="0" res="-9.9000000000000000e+01" rms="0.0000000000000000e+00" purity="5.0336575508117676e-01" nType="0">
          <Node pos="l" depth="2" NCoef="0" IVar="-1" Cut="0.0000000000000000e+00" cType="1" res="-9.9000000000000000e+01" rms="0.0000000000000000e+00" purity="5.3319805860519409e-01" nType="1"/>
          <Node pos="r" depth="2" NCoef="0" IVar="-1" Cut="0.0000000000000000e+00" cType="1" res="-9.9000000000000000e+01" rms="0.0000000000000000e+00" purity="4.8342105746269226e-01" nType="-1"/>
        </Node>
        <Node pos="r" depth="1" NCoef="0" IVar="-1" Cut="2.8535541892051697e-01" cType="0" res="-9.9000000000000000e+01" rms="0.0000000000000000e+00" purity="4.6808236837387085e-01" nType="-1"/>
      </Node>
    </BinaryTree>
    <BinaryTree type="DecisionTree" boostWeight="4.3094974644990652e-02" itree="68">
      <Node pos="s" depth="0" NCoef="0" IVar="2" Cut="-4.3456971645355225e-02" cType="1" res="-9.9000000000000000e+01" rms="0.0000000000000000e+00" purity="5.0085330009460449e-01" nType="0">
        <Node pos="l" depth="1" NCoef="0" IVar="1" Cut="8.2276034355163574e-01" cType="1" res="-9.9000000000000000e+01" rms="0.0000000000000000e+00" purity="5.2034121751785278e-01" nType="0">
          <Node pos="l" depth="2" NCoef="0" IVar="-1" Cut="0.0000000000000000e+00" cType="1" res="-9.9000000000000000e+01" rms="0.0000000000000000e+00" purity="5.4566699266433716e-01" nType="1"/>
          <Node pos="r" depth="2" NCoef="0" IVar="-1" Cut="0.0000000000000000e+00" cType="1" res="-9.9000000000000000e+01" rms="0.0000000000000000e+00" purity="4.9686822295188904e-01" nType="-1"/>
        </Node>
        <Node pos="r" depth="1" NCoef="0" IVar="5" Cut="1.0549237060546875e+03" cType="0" res="-9.9000000000000000e+01" rms="0.0000000000000000e+00" purity="4.9058571457862854e-01" nType="0">
          <Node pos="l" depth="2" NCoef="0" IVar="-1" Cut="0.0000000000000000e+00" cType="1" res="-9.9000000000000000e+01" rms="0.0000000000000000e+00" purity="5.1146703958511353e-01" nType="1"/>
          <Node pos="r" depth="2" NCoef="0" IVar="-1" Cut="0.0000000000000000e+00" cType="1" res="-9.9000000000000000e+01" rms="0.0000000000000000e+00" purity="4.7121834754943848e-01" nType="-1"/>
        </Node>
      </Node>
    </BinaryTree>
    <BinaryTree type="DecisionTree" boostWeight="2.7939630618699376e-02" itree="69">
      <Node pos="s" depth="0" NCoef="0" IVar="4" Cut="2.3814754188060760e-01" cType="0" res="-9.9000000000000000e+01" rms="0.0000000000000000e+00" purity="4.9715381860733032e-01" nType="0">
        <Node pos="l" depth="1" NCoef="0" IVar="-1" Cut="2.4269592761993408e-01" cType="0" res="-9.9000000000000000e+01" rms="0.0000000000000000e+00" purity="5.0852245092391968e-01" nType="1"/>
        <Node pos="r" depth="1" NCoef="0" IVar="-1" Cut="1.5514571964740753e-01" cType="1" res="-9.9000000000000000e+01" rms="0.0000000000000000e+00" purity="4.7581705451011658e-01" nType="-1"/>
      </Node>
    </BinaryTree>
    <BinaryTree type="DecisionTree" boostWeight="7.0614944716973854e-02" itree="70">
      <Node pos="s" depth="0" NCoef="0" IVar="2" Cut="9.9335789680480957e-02" cType="0" res="-9.9000000000000000e+01" rms="0.0000000000000000e+00" purity="4.8627009987831116e-01" nType="0">
        <Node pos="l" depth="1" NCoef="0" IVar="3" Cut="3.9811622351408005e-02" cType="0" res="-9.9000000000000000e+01" rms="0.0000000000000000e+00" purity="5.1857709884643555e-01" nType="0">
          <Node pos="l" depth="2" NCoef="0" IVar="-1" Cut="0.0000000000000000e+00" cType="1" res="-9.9000000000000000e+01" rms="0.0000000000000000e+00" purity="5.3341221809387207e-01" nType="1"/>
          <Node pos="r" depth="2" NCoef="0" IVar="-1" Cut="0.0000000000000000e+00" cType="1" res="-9.9000000000000000e+01" rms="0.0000000000000000e+00" purity="4.6444454789161682e-01" nType="-1"/>
        </Node>
        <Node pos="r" depth="1" NCoef="0" IVar="1" Cut="9.3037867546081543e-01" cType="0" res="-9.9000000000000000e+01" rms="0.0000000000000000e+00" purity="4.7387394309043884e-01" nType="0">
          <Node pos="l" depth="2" NCoef="0" IVar="-1" Cut="0.0000000000000000e+00" cType="1" res="-9.9000000000000000e+01" rms="0.0000000000000000e+00" purity="5.3960520029067993e-01" nType="1"/>
          <Node pos="r" depth="2" NCoef="0" IVar="-1" Cut="0.0000000000000000e+00" cType="1" res="-9.9000000000000000e+01" rms="0.0000000000000000e+00" purity="4.6475437283515930e-01" nType="-1"/>
        </Node>
      </Node>
    </BinaryTree>
    <BinaryTree type="DecisionTree" boostWeight="5.1376341550462175e-02" itree="71">
      <Node pos="s" depth="0" NCoef="0" IVar="0" Cut="1.3355156250000000e+03" cType="1" res="-9.9000000000000000e+01" rms="0.0000000000000000e+00" purity="5.0565266609191895e-01" nType="0">
        <Node pos="l" depth="1" NCoef="0" IVar="5" Cut="5.2993811035156250e+02" cType="0" res="-9.9000000000000000e+01" rms="0.0000000000000000e+00" purity="5.1168608665466309e-01" nType="0">
          <Node pos="l" depth="2" NCoef="0" IVar="-1" Cut="0.0000000000000000e+00" cType="1" res="-9.9000000000000000e+01" rms="0.0000000000000000e+00" purity="5.1920098066329956e-01" nType="1"/>
          <Node pos="r" depth="2" NCoef="0" IVar="-1" Cut="0.0000000000000000e+00" cType="1" res="-9.9000000000000000e+01" rms="0.0000000000000000e+00" purity="4.5297476649284363e-01" nType="-1"/>
        </Node>
        <Node pos="r" depth="1" NCoef="0" IVar="6" Cut="2.8512677001953125e+02" cType="0" res="-9.9000000000000000e+01" rms="0.0000000000000000e+00" purity="4.4194772839546204e-01" nType="0">
          <Node pos="l" depth="2" NCoef="0" IVar="-1" Cut="0.0000000000000000e+00" cType="1" res="-9.9000000000000000e+01" rms="0.0000000000000000e+00" purity="5.0218111276626587e-01" nType="1"/>
          <Node pos="r" depth="2" NCoef="0" IVar="-1" Cut="0.0000000000000000e+00" cType="1" res="-9.9000000000000000e+01" rms="0.0000000000000000e+00" purity="3.5843768715858459e-01" nType="-1"/>
        </Node>
      </Node>
    </BinaryTree>
    <BinaryTree type="DecisionTree" boostWeight="4.1581381014128338e-02" itree="72">
      <Node pos="s" depth="0" NCoef="0" IVar="4" Cut="1.4303922653198242e-01" cType="0" res="-9.9000000000000000e+01" rms="0.0000000000000000e+00" purity="5.0158673524856567e-01" nType="0">
        <Node pos="l" depth="1" NCoef="0" IVar="0" Cut="7.1597796630859375e+02" cType="1" res="-9.9000000000000000e+01" rms="0.0000000000000000e+00" purity="5.1003545522689819e-01" nType="0">
          <Node pos="l" depth="2" NCoef="0" IVar="-1" Cut="0.0000000000000000e+00" cType="1" res="-9.9000000000000000e+01" rms="0.0000000000000000e+00" purity="5.2354317903518677e-01" nType="1"/>
          <Node pos="r" depth="2" NCoef="0" IVar="-1" Cut="0.0000000000000000e+00" cType="1" res="-9.9000000000000000e+01" rms="0.0000000000000000e+00" purity="4.8432189226150513e-01" nType="-1"/>
        </Node>
        <Node pos="r" depth="1" NCoef="0" IVar="-1" Cut="-1.0174173116683960e-01" cType="0" res="-9.9000000000000000e+01" rms="0.0000000000000000e+00" purity="4.7936788201332092e-01" nType="-1"/>
      </Node>
    </BinaryTree>
    <BinaryTree type="DecisionTree" boostWeight="6.3426944970887245e-02" itree="73">
      <Node pos="s" depth="0" NCoef="0" IVar="3" Cut="1.2847734987735748e-01" cType="1" res="-9.9000000000000000e+01" rms="0.0000000000000000e+00" purity="5.0676566362380981e-01" nType="0">
        <Node pos="l" depth="1" NCoef="0" IVar="3" Cut="6.1299116350710392e-03" cType="0" res="-9.9000000000000000e+01" rms="0.0000000000000000e+00" purity="5.1935088634490967e-01" nType="0">
          <Node pos="l" depth="2" NCoef="0" IVar="-1" Cut="0.0000000000000000e+00" cType="1" res="-9.9000000000000000e+01" rms="0.0000000000000000e+00" purity="5.2424550056457520e-01" nType="1"/>
          <Node pos="r" depth="2" NCoef="0" IVar="-1" Cut="0.0000000000000000e+00" cType="1" res="-9.9000000000000000e+01" rms="0.0000000000000000e+00" purity="4.2483672499656677e-01" nType="-1"/>
        </Node>
        <Node pos="r" depth="1" NCoef="0" IVar="6" Cut="1.6535040283203125e+02" cType="0" res="-9.9000000000000000e+01" rms="0.0000000000000000e+00" purity="4.8124942183494568e-01" nType="0">
          <Node pos="l" depth="2" NCoef="0" IVar="-1" Cut="0.0000000000000000e+00" cType="1" res="-9.9000000000000000e+01" rms="0.0000000000000000e+00" purity="5.4623162746429443e-01" nType="1"/>
          <Node pos="r" depth="2" NCoef="0" IVar="-1" Cut="0.0000000000000000e+00" cType="1" res="-9.9000000000000000e+01" rms="0.0000000000000000e+00" purity="4.5986691117286682e-01" nType="-1"/>
        </Node>
      </Node>
    </BinaryTree>
    <BinaryTree type="DecisionTree" boostWeight="4.8924610055961583e-02" itree="74">
      <Node pos="s" depth="0" NCoef="0" IVar="3" Cut="1.9986499845981598e-01" cType="0" res="-9.9000000000000000e+01" rms="0.0000000000000000e+00" purity="4.8836553096771240e-01" nType="0">
        <Node pos="l" depth="1" NCoef="0" IVar="-1" Cut="1.4608074951171875e+02" cType="0" res="-9.9000000000000000e+01" rms="0.0000000000000000e+00" purity="5.3254824876785278e-01" nType="1"/>
        <Node pos="r" depth="1" NCoef="0" IVar="2" Cut="-1.2886516749858856e-01" cType="1" res="-9.9000000000000000e+01" rms="0.0000000000000000e+00" purity="4.8192098736763000e-01" nType="0">
          <Node pos="l" depth="2" NCoef="0" IVar="-1" Cut="0.0000000000000000e+00" cType="1" res="-9.9000000000000000e+01" rms="0.0000000000000000e+00" purity="5.1655459403991699e-01" nType="1"/>
          <Node pos="r" depth="2" NCoef="0" IVar="-1" Cut="0.0000000000000000e+00" cType="1" res="-9.9000000000000000e+01" rms="0.0000000000000000e+00" purity="4.7549527883529663e-01" nType="-1"/>
        </Node>
      </Node>
    </BinaryTree>
    <BinaryTree type="DecisionTree" boostWeight="1.6447737257358784e-02" itree="75">
      <Node pos="s" depth="0" NCoef="0" IVar="2" Cut="2.1346607804298401e-01" cType="1" res="-9.9000000000000000e+01" rms="0.0000000000000000e+00" purity="4.9450176954269409e-01" nType="0">
        <Node pos="l" depth="1" NCoef="0" IVar="0" Cut="1.3907745361328125e+03" cType="1" res="-9.9000000000000000e+01" rms="0.0000000000000000e+00" purity="4.9792519211769104e-01" nType="0">
          <Node pos="l" depth="2" NCoef="0" IVar="-1" Cut="0.0000000000000000e+00" cType="1" res="-9.9000000000000000e+01" rms="0.0000000000000000e+00" purity="5.0147014856338501e-01" nType="1"/>
          <Node pos="r" depth="2" NCoef="0" IVar="-1" Cut="0.0000000000000000e+00" cType="1" res="-9.9000000000000000e+01" rms="0.0000000000000000e+00" purity="4.5698407292366028e-01" nType="-1"/>
        </Node>
        <Node pos="r" depth="1" NCoef="0" IVar="6" Cut="1.0615164947509766e+02" cType="0" res="-9.9000000000000000e+01" rms="0.0000000000000000e+00" purity="4.3813708424568176e-01" nType="0">
          <Node pos="l" depth="2" NCoef="0" IVar="-1" Cut="0.0000000000000000e+00" cType="1" res="-9.9000000000000000e+01" rms="0.0000000000000000e+00" purity="5.0320774316787720e-01" nType="1"/>
          <Node pos="r" depth="2" NCoef="0" IVar="-1" Cut="0.0000000000000000e+00" cType="1" res="-9.9000000000000000e+01" rms="0.0000000000000000e+00" purity="3.7967747449874878e-01" nType="-1"/>
        </Node>
      </Node>
    </BinaryTree>
    <BinaryTree type="DecisionTree" boostWeight="4.4609744419229311e-02" itree="76">
      <Node pos="s" depth="0" NCoef="0" IVar="6" Cut="2.1150494384765625e+02" cType="0" res="-9.9000000000000000e+01" rms="0.0000000000000000e+00" purity="4.8928019404411316e-01" nType="0">
        <Node pos="l" depth="1" NCoef="0" IVar="1" Cut="4.6766367554664612e-01" cType="0" res="-9.9000000000000000e+01" rms="0.0000000000000000e+00" purity="5.3501319885253906e-01" nType="0">
          <Node pos="l" depth="2" NCoef="0" IVar="-1" Cut="0.0000000000000000e+00" cType="1" res="-9.9000000000000000e+01" rms="0.0000000000000000e+00" purity="5.5335628986358643e-01" nType="1"/>
          <Node pos="r" depth="2" NCoef="0" IVar="-1" Cut="0.0000000000000000e+00" cType="1" res="-9.9000000000000000e+01" rms="0.0000000000000000e+00" purity="4.6647924184799194e-01" nType="-1"/>
        </Node>
        <Node pos="r" depth="1" NCoef="0" IVar="-1" Cut="1.1471853027343750e+03" cType="1" res="-9.9000000000000000e+01" rms="0.0000000000000000e+00" purity="4.8199281096458435e-01" nType="-1"/>
      </Node>
    </BinaryTree>
    <BinaryTree type="DecisionTree" boostWeight="3.8120604981282613e-02" itree="77">
      <Node pos="s" depth="0" NCoef="0" IVar="4" Cut="9.0359610319137573e-01" cType="1" res="-9.9000000000000000e+01" rms="0.0000000000000000e+00" purity="5.0008261203765869e-01" nType="0">
        <Node pos="l" depth="1" NCoef="0" IVar="5" Cut="8.6883551025390625e+02" cType="1" res="-9.9000000000000000e+01" rms="0.0000000000000000e+00" purity="5.0834190845489502e-01" nType="0">
          <Node pos="l" depth="2" NCoef="0" IVar="-1" Cut="0.0000000000000000e+00" cType="1" res="-9.9000000000000000e+01" rms="0.0000000000000000e+00" purity="5.2898788452148438e-01" nType="1"/>
          <Node pos="r" depth="2" NCoef="0" IVar="-1" Cut="0.0000000000000000e+00" cType="1" res="-9.9000000000000000e+01" rms="0.0000000000000000e+00" purity="4.9637416005134583e-01" nType="-1"/>
        </Node>
        <Node pos="r" depth="1" NCoef="0" IVar="-1" Cut="1.2583680450916290e-02" cType="1" res="-9.9000000000000000e+01" rms="0.0000000000000000e+00" purity="4.2626035213470459e-01" nType="-1"/>
      </Node>
    </BinaryTree>
    <BinaryTree type="DecisionTree" boostWeight="4.8334954309990345e-02" itree="78">
      <Node pos="s" depth="0" NCoef="0" IVar="1" Cut="8.5359233617782593e-01" cType="1" res="-9.9000000000000000e+01" rms="0.0000000000000000e+00" purity="5.0147926807403564e-01" nType="0">
        <Node pos="l" depth="1" NCoef="0" IVar="-1" Cut="1.5611678361892700e-01" cType="0" res="-9.9000000000000000e+01" rms="0.0000000000000000e+00" purity="5.1809829473495483e-01" nType="1"/>
        <Node pos="r" depth="1" NCoef="0" IVar="5" Cut="1.3239864501953125e+03" cType="0" res="-9.9000000000000000e+01" rms="0.0000000000000000e+00" purity="4.8283934593200684e-01" nType="0">
          <Node pos="l" depth="2" NCoef="0" IVar="-1" Cut="0.0000000000000000e+00" cType="1" res="-9.9000000000000000e+01" rms="0.0000000000000000e+00" purity="5.2880018949508667e-01" nType="1"/>
          <Node pos="r" depth="2" NCoef="0" IVar="-1" Cut="0.0000000000000000e+00" cType="1" res="-9.9000000000000000e+01" rms="0.0000000000000000e+00" purity="4.6839436888694763e-01" nType="-1"/>
        </Node>
      </Node>
    </BinaryTree>
    <BinaryTree type="DecisionTree" boostWeight="5.3201408029134256e-02" itree="79">
      <Node pos="s" depth="0" NCoef="0" IVar="0" Cut="7.3646057128906250e+02" cType="1" res="-9.9000000000000000e+01" rms="0.0000000000000000e+00" purity="4.9606567621231079e-01" nType="0">
        <Node pos="l" depth="1" NCoef="0" IVar="2" Cut="1.5629079937934875e-01" cType="1" res="-9.9000000000000000e+01" rms="0.0000000000000000e+00" purity="5.0799548625946045e-01" nType="0">
          <Node pos="l" depth="2" NCoef="0" IVar="-1" Cut="0.0000000000000000e+00" cType="1" res="-9.9000000000000000e+01" rms="0.0000000000000000e+00" purity="5.1524877548217773e-01" nType="1"/>
          <Node pos="r" depth="2" NCoef="0" IVar="-1" Cut="0.0000000000000000e+00" cType="1" res="-9.9000000000000000e+01" rms="0.0000000000000000e+00" purity="4.6780401468276978e-01" nType="-1"/>
        </Node>
        <Node pos="r" depth="1" NCoef="0" IVar="3" Cut="1.7131385207176208e-01" cType="0" res="-9.9000000000000000e+01" rms="0.0000000000000000e+00" purity="4.6736329793930054e-01" nType="0">
          <Node pos="l" depth="2" NCoef="0" IVar="-1" Cut="0.0000000000000000e+00" cType="1" res="-9.9000000000000000e+01" rms="0.0000000000000000e+00" purity="5.4960745573043823e-01" nType="1"/>
